130 100
the 0.0045003304 0.005134159 0.0010107819 0.004104897 -0.0054990747 -0.026626252 0.018381462 0.040889446 -0.011694909 -0.016065048 0.0024399818 -0.02153226 -0.005923034 0.017641932 -0.0013490923 -0.00878175 0.006760234 -0.0060142074 -0.012915795 -0.03823625 0.018675456 0.010435271 0.01027206 -0.0018962959 0.007506389 -0.0013935849 -0.008005481 -0.00077254215 -0.016224772 -0.00023575658 0.007229385 -0.0016513385 0.019790517 -0.028228665 -0.008327459 0.016643725 0.014810702 -0.010524904 -0.0017683746 -0.026140867 -0.005525074 -0.005768866 -0.014878541 -0.0056881756 0.012887824 -0.0032152738 -0.018945808 0.0071079284 0.01007634 0.01062711 -0.00658004 -0.0060786433 -0.0009523759 -0.0009979666 0.0069322563 0.00489903 0.006325804 -0.010610977 -0.016453186 0.015003619 0.004748693 -0.0069234823 0.0075219437 -0.0063168886 -0.011633173 0.022221176 0.009264597 0.020830635 -0.020037865 0.021047277 0.0037083006 0.018644383 0.008567503 -0.0033852078 0.021157812 0.00469754 0.00933678 0.004468203 -0.011560414 -0.009697512 -0.009629351 0.005955495 -0.011615548 0.019509831 -0.019550683 -0.0023453648 0.028239338 0.0015832537 0.009677285 0.011927466 0.021668624 0.011208183 0.008809534 0.00059735466 0.028602311 0.012784793 -0.0066729444 -0.012343113 0.0031248967 0.0051758545
to -0.0027703904 0.009921128 0.000729802 3.9739847e-05 0.012393403 -0.030702151 0.015929116 0.04556718 -0.0114234425 -0.021465579 -0.006456559 -0.033481456 -0.00693305 0.021276996 0.0081770485 -0.0012541804 0.011675235 -0.0009970639 -0.009686763 -0.03622493 0.016406363 0.002011405 0.012548761 -0.013954141 0.008020325 0.0054444796 -0.013930736 -0.0034172668 -0.012874602 0.010880574 0.027811214 -0.005262864 0.012046743 -0.03154347 -0.0036690317 0.025822084 0.015356842 0.00045528356 0.0075886804 -0.016035512 0.013474783 -0.020218715 -0.017179668 -0.0016650966 0.012628936 0.003992309 -0.008090768 -0.0045698704 0.0082562575 0.0036565582 0.010260629 -0.022850052 0.0040367953 0.0012234886 -0.0028451374 0.02052332 0.011511774 0.0025824737 -0.016050415 0.015272863 -0.00090167904 -0.005760484 0.009614536 -0.0034306764 -0.008469804 0.029639233 0.020033237 0.013129563 -0.013757406 0.029656844 -0.0056857946 0.003662451 0.018294955 0.0135920495 0.019975588 -0.0019916913 -0.004670197 0.0033691032 -0.005550917 -0.0051966626 -0.02076137 0.0081062475 -0.015973648 0.0084912125 -0.015802808 -0.0074166385 0.027023718 -0.0017970735 0.019501545 0.0014961549 0.026524106 0.012027517 0.008684988 -0.007357396 0.020630151 0.012511378 0.0086055575 -0.008580085 -0.006694189 0.0031217998
we 0.004923389 0.008132231 -0.0103912605 -0.005906188 0.0116401445 -0.011428985 0.007499886 0.0329048 -0.014567626 -0.005384155 -0.00936253 -0.022287812 0.008133469 0.011421646 0.010935174 -0.012476587 0.009031119 0.0034070157 -0.012708484 -0.032266703 0.0038346455 0.000214022 -0.00076346885 -0.011537178 0.008974062 -0.002834811 0.001437557 -0.0009395268 -0.014881184 0.007479669 0.019468203 -0.008274833 0.0021901603 -0.022427687 -0.014512058 0.016233806 0.006033667 -0.00083874806 0.00023358232 -0.020856922 -0.0014170737 -0.008643063 -0.0068559097 0.005570595 0.015957363 0.0017039243 -0.009258888 -0.00531318 0.00052424194 0.0002208477 0.003257552 -0.012781341 -0.004092642 -0.009432645 -0.01070441 0.0031884592 0.00024296677 -0.007508285 -0.018588949 0.0017891777 0.010227085 -0.010629673 0.019196214 0.002572132 -0.01649981 0.027861327 0.017001858 0.019488286 -0.022873797 0.023418901 0.0020567824 0.014327514 0.013562317 0.0075129685 0.012924061 0.012141151 0.011048346 0.008940049 -0.011073886 -0.00083481224 -0.007294599 -0.0053620855 -0.024235016 0.011341654 -0.011882723 -0.009888355 0.015989289 -0.0012073123 0.02102833 0.004761687 0.014788525 0.01611652 0.014080978 -0.0039699078 0.026008701 0.012644179 0.008125325 -0.0044556013 0.010112006 -0.008192894
of -0.0049336855 0.013064388 -0.0028569284 -0.0053001842 0.007448128 -0.018357612 0.011312646 0.030148122 0.0009281022 -0.01641098 0.0055752452 -0.010107367 0.0031886632 0.0020272 0.011290611 -0.0071084322 0.011788128 -0.0102925915 -0.011635991 -0.0141062625 0.00991215 0.0016945968 0.011924501 0.007094357 -0.008903669 0.00412813 0.00074932113 -0.0008968846 -0.004373817 0.0030138602 0.011170864 -0.004297351 0.00017341823 -0.017316407 -0.00052772305 0.022317795 0.014163841 -0.009169296 -0.010376902 -0.005399162 0.0067264065 -0.0025279217 0.0017289392 -0.003743926 0.016533721 0.0006601282 -0.0054216716 -0.004338588 0.0008457742 -0.0014438241 0.005598953 -0.007872732 -0.007232859 -0.01082749 -0.0072547738 0.006927869 0.0035099364 0.007020545 -0.0035393222 1.9776873e-05 0.0047833277 -0.00024164427 0.015807062 -0.00019378553 -0.0026398858 0.008310801 0.006589806 0.01908336 -0.014763626 0.003950265 0.004417905 0.0034320543 0.006156718 0.014208633 0.0099756485 -0.001829799 -0.0037973183 0.010638635 -0.012079527 0.0012947456 -0.011737589 0.008687059 -0.007732268 0.011492465 -0.011711752 -0.005918282 0.024690567 0.010203177 0.007469503 -0.005994321 0.007327451 0.006861027 0.0029727654 -0.0022770993 0.023306957 0.0052049197 0.007852296 -0.0110550085 -0.0008606168 -0.0062229447
and -0.0025559333 0.0060714837 -0.010649139 -0.0065700156 0.007534155 -0.013044353 0.0126465745 0.03228177 -0.010762654 -0.0045852107 -0.010959804 -0.014709412 -0.009145596 0.01279988 -0.0013202337 -0.0105901575 0.00083335076 -0.0010389286 0.0013706101 -0.032485235 0.011760076 -0.0033420685 0.011149409 0.0063496875 -0.0015605849 0.0029367576 -0.0061929678 -0.00059688103 -0.017100936 0.0037808404 0.020598905 0.0016320782 0.010904835 -0.02902304 0.00260716 0.011388829 0.0032316756 -0.00082990393 -0.002397587 -0.018246535 0.006101466 -0.016791582 -0.01594574 0.007874826 0.018361308 -0.009853997 -0.007488466 -0.0022655763 0.009763722 -0.0056508877 0.0055098822 -0.005910345 0.012890226 -0.006060089 -0.0027667184 0.0019993188 -0.008039685 -0.012330546 -0.013178321 -0.0008786619 0.010598183 -0.0128935035 0.013409791 0.0022700103 -0.012734354 0.017467402 0.01924449 0.023617707 -0.020495564 0.026889214 -0.00719113 0.015509212 0.006498929 0.008690168 0.018933555 0.010647956 -0.0004489148 0.013346471 -0.00067134044 -0.010564139 -0.016474593 -0.004515109 -0.013008867 0.008780655 -0.020306233 -0.012056016 0.02914139 0.008293472 0.0035153423 -0.00025790196 0.022521805 0.0057080113 0.010277928 -0.0036761772 0.020652154 -0.000748938 0.0086970385 -0.00019371787 0.0028288658 0.002097764
a -0.0058089783 0.0054308134 -0.0032318947 -0.01208002 -0.0070038764 -0.013861395 0.011476567 0.023471728 -0.010516233 -0.014571365 -0.008009152 -0.014823647 -0.008278716 -0.0028536369 -0.00043762673 -0.012628235 -0.0038637163 -0.009997278 -0.005019711 -0.019383207 -0.0021681616 0.0025169307 0.010266605 0.0061270245 -0.0066577904 -0.0023313365 -0.0014165497 -0.013519644 -0.0036483055 0.008872432 0.0148921795 -0.009480989 0.0018456416 -0.020956764 -0.0036852974 0.020720443 0.0102591785 0.0023464446 0.004245099 -0.016370865 0.012283182 -0.014112965 -0.011110847 -0.0030666597 0.0068999827 -0.0050645703 -0.0076259323 0.0057492214 0.0025426804 -0.0007189432 0.0039140927 -0.015131396 0.010106499 0.0075365403 -0.010649314 0.008181481 0.011574134 -0.009739897 -0.014821814 -0.0040678424 0.012088869 -0.005119625 0.016276833 -0.007603409 -0.0022452816 0.014654761 0.0070715197 0.011829948 -0.018003551 0.0021319028 0.0011597213 0.012308151 0.014257516 0.00946793 0.009827921 0.01092839 -0.008466489 0.006741222 -0.005184264 0.0031186529 0.0016237543 -0.004610685 -0.0049145664 -0.0019094765 -0.009254296 -0.01137466 0.008384481 0.013379513 0.0063409833 0.0061315736 0.021502197 0.01573326 -0.0051768557 -0.0029813116 0.021809103 0.0101758 -0.00012983037 -0.011890915 0.0042437073 -0.00729792
that 0.012167045 6.601269e-06 -0.0040919357 -0.003002858 0.0030719782 -0.015757665 0.016085759 0.027332008 -0.008983427 -0.012297293 0.0014873982 -0.015537865 -0.0017494346 0.019031335 -0.0016892081 -0.0065498697 0.012399253 0.0009138183 -0.0023063882 -0.033499956 0.011084862 0.0021456436 0.012185238 -0.0011621456 0.0024005966 0.004103943 -0.007901497 -0.0104848435 -0.0071784654 0.0011697086 0.018951757 0.008345044 0.00808444 -0.015026342 -0.011209044 0.017605832 -0.0010259929 -0.012621547 -0.0072529996 -0.026606146 0.01133076 -0.014811155 0.0028196704 -0.00838801 0.01453837 0.0069221766 -0.017540298 -0.012488723 0.0005932711 -0.00146368 0.0013940246 -0.017936619 -0.005976442 0.0013406005 -0.009623815 -0.00088115595 -0.00065009744 -0.011566344 -0.017851101 -0.0032917988 0.0049480656 -0.010614941 0.016484637 0.0025619285 -0.011574111 0.02252696 0.0026300694 0.008304335 -0.021853479 0.01164159 -0.0033166574 0.015049221 0.00575586 0.009977424 0.021472594 -0.0038524321 0.0063526407 0.0103774965 -0.010457611 0.0058195246 -0.0016316584 -0.003460176 -0.021143062 0.013058971 -0.01374772 -0.010066919 0.028077386 0.00077640987 0.0048893476 0.004038177 0.014700161 0.009899392 0.0008063268 -0.00010074505 0.015551637 0.007562123 0.010356964 -0.010282929 0.00027980428 0.004708975
is 0.011359628 -0.00043711287 0.006339043 0.0049285926 -0.001642904 -0.014014987 0.012948739 0.018829595 -0.010592617 -0.015527906 -0.0045165787 -0.014933949 0.0036711104 0.0055174623 0.002639773 -0.0025194872 0.0079426775 -0.005240178 -0.009924519 -0.030191554 0.008212737 0.010574189 0.004084589 -0.011242319 -0.007036314 0.0084474 -0.009377318 0.0015489296 -0.0131379 0.011160125 0.0038744588 0.002814954 0.0063115517 -0.021764055 -0.007859204 0.012260883 -0.0010111033 -0.004104664 -0.008734342 -0.012375998 0.012187214 -0.010074649 -0.005592871 0.002655402 0.017788986 -0.008344187 -0.0150296725 -0.004981087 0.012986914 0.0020104118 -0.0074398965 -0.009323076 0.011753397 -0.008558734 -0.006762855 0.016221939 -0.0074792695 0.0012949758 -0.008589787 0.01087111 0.013099045 -0.007919421 0.0042926157 0.010059708 -0.004757565 0.020293683 -0.0021168904 0.020440552 -0.013591309 0.0071588387 0.0017843313 0.006893252 0.012061165 0.0018875396 0.007938892 0.005415093 0.009536133 -0.0013034379 -0.0033831904 -0.008859624 -0.013221129 0.0018760443 -0.020681132 0.011435433 -0.008371996 -0.005342557 0.020970177 0.014615239 0.017982477 0.0014472224 0.016916702 0.0040215775 -0.004512676 0.0065057706 0.01151716 0.004772873 0.00014726585 -0.008118541 0.0055015543 -0.004702539
in -0.006339797 0.012516812 0.0017523493 0.00611911 0.009197752 -0.010293394 0.017847907 0.01692408 -0.011445753 -0.004128267 0.00037197515 -0.019397022 0.008907689 0.003748596 0.012026563 -0.0037836358 -0.0035877076 -0.006830433 -0.010581897 -0.022363557 0.008502561 0.012993579 0.011722006 -0.008768435 0.004030601 0.0038718632 -0.0073834923 -0.013519028 -0.004914292 -0.0057574385 0.015983315 -0.0063518076 0.012382005 -0.004181635 -0.004214964 0.017101841 0.0029267047 0.004395183 0.002871208 -0.023004262 0.0007455559 -0.003718443 -0.0043498366 -0.0020102756 0.007470064 -0.0037571292 -0.0070735803 0.0025234378 -0.00053380476 -0.0029117381 0.0012214502 -0.0070257154 0.0021533489 -0.0057998747 0.0029493577 0.0043812976 0.003494661 -0.0016043799 -0.0027342003 -0.0030391542 -0.0026675516 -0.009150203 0.017083867 -0.00055819214 -0.015919436 0.012716195 0.0023139927 0.016189441 -0.021133764 0.0153101245 -0.010376356 0.008256543 0.0130336275 0.011266503 0.0036096813 -0.0032964626 -0.0055194325 -0.004574383 -0.015180866 -0.0027533765 -0.0068362583 -0.0050631147 -0.0044509764 0.009244333 -0.0035295761 -0.0014574974 0.015358487 -0.0027597055 0.0067925514 0.007784036 0.008741838 0.008643899 0.006231427 -0.0013080419 0.02247987 0.013650784 0.0042271507 0.0036509235 0.0072830045 -0.0062981155
it -0.0020293503 -0.0033117284 -0.009981874 0.005371892 0.0006503833 -0.019723468 0.0036546492 0.025844341 -0.0075947763 -0.0117981555 -0.0016382816 -0.016241537 -0.002041669 0.008605363 -0.0002041776 0.0040481617 0.0065944674 -0.014740427 0.0031215732 -0.025740264 0.008330732 0.007898718 -0.002861814 -0.004514924 0.00862646 -0.0025947567 -0.012395737 0.0052244253 -0.008123418 -0.0024237658 0.018217439 0.003790279 0.011003703 -0.004227313 -0.012495706 0.017598614 0.0065004206 0.0013904764 0.00053602026 -0.008903093 0.007533379 -0.0008793258 -0.007437425 -0.0051617986 0.008076066 0.00047103208 -0.010757221 0.0044219904 0.0077473824 0.008581052 0.0037004713 0.0010695067 0.0006219933 0.0070287064 0.00253325 -0.0016083037 -0.0026821268 -0.0045472984 -0.0033811934 0.0030034883 0.0013533456 0.0033763063 0.016721394 -0.00046134504 -0.011595741 0.007971319 0.001721065 0.00037205228 -0.00979152 0.008163768 0.0013629418 0.012073414 0.002548013 -0.0057836636 0.012445639 -0.0040560304 0.003746058 -0.0005732713 0.0015292944 -0.00018813752 -0.002230099 -0.00073407823 -0.012670567 0.015541797 -0.007722424 -0.008677506 0.006261784 0.005583381 0.015334481 0.008611971 0.004619066 0.015879424 0.007387485 0.007872552 0.021969391 -0.0022077148 -0.007131412 0.0025579962 0.010881492 0.0027731962
our 0.0105783455 0.0024024632 0.0052044643 -0.012842819 -0.0053344597 -0.020604298 0.0045723473 0.028150631 -0.008702024 -0.017070912 0.0046952222 -0.018385068 0.008292608 0.0030121168 0.0065896926 0.00012451377 0.0055126096 -0.007896823 -0.0004483302 -0.02875445 0.0054777763 0.0012562152 0.009618188 -0.00572458 -0.0057428777 0.005756034 -0.005753046 -0.008176872 0.00044241536 0.0062644808 0.0064202235 0.00025450913 0.016440526 -0.0070576454 0.0021070105 0.018110583 0.007798859 -0.005132468 -0.007788108 -0.0148147 0.0015648557 -0.008247448 -0.010630346 0.0065437485 0.00242851 -0.009514719 -0.010977853 -0.0032896795 -0.0037465396 0.0018247355 -0.0041050026 -0.009190561 -0.0053263973 0.0010757212 0.0021936432 0.006645482 -0.0040018973 -0.004673427 -0.0019436127 0.0076178745 -0.0046538766 -0.008322752 0.010713301 0.0032512294 -0.016574534 0.018639624 -0.001248654 0.0034091529 -0.0089107 0.00990218 0.0025035234 0.016401377 0.0036463498 0.013172656 0.013720696 0.01276421 0.007249556 -0.0054099928 -0.009738304 0.0060288985 -0.0009026167 0.0112478295 -0.004878794 0.017106486 -0.01996744 0.0011840655 0.010189892 0.008576259 0.015434737 0.007886426 0.021816336 0.009523875 0.002507339 0.005898122 0.008053715 0.005337818 0.01139065 -0.009190675 0.0054184 -0.00880203
i 0.0116019305 0.010034823 -0.00027152675 0.0032981308 0.0027740963 -0.013303952 0.0025326605 0.017651763 -0.006763424 -0.008318832 0.0033013432 -0.0040374757 -0.002317123 0.0008648536 0.007348798 -0.007992712 -0.0017715266 -0.008715119 -0.0057016835 -0.01855688 -0.00038703275 -0.006674992 0.0026361353 -0.009378546 -0.009502556 -0.0073998775 -0.00936351 0.0045548966 0.000880985 0.0019122055 0.0018707154 -0.0076689664 0.004273165 -0.0069408976 -0.0019162965 0.007338155 0.002967967 -0.0013475838 -0.008351966 -0.013074439 -0.0068939053 -0.004851895 -0.0002024395 0.0069391574 0.0023763513 -0.0036274074 0.005906776 -0.00077303435 -0.00059203757 0.00901117 0.0031372434 -0.008933472 0.0075421543 0.003917181 -0.007503817 0.002828432 0.0016390572 0.00461497 -0.0057868725 -0.00080189103 0.004053859 -0.001661733 0.0050757844 -0.002002159 -0.009461674 0.014092965 0.011209609 0.013648635 -0.014534877 0.009015875 -0.0041503306 0.01287059 0.006308132 0.0066976594 0.008143147 0.008130032 -0.0052163335 0.009838898 -0.0055200616 -0.0049185925 -0.005195239 0.010829033 -0.012643954 0.0023163927 0.0023250545 -0.0013703149 0.0014786466 -0.0040487135 0.013403897 0.008103486 0.01164566 0.00042259437 -0.007342 0.003934398 0.013904604 -0.0031008255 -0.0068917284 -0.0048373155 -0.0043230564 -0.0026991917
they 0.0003270831 -0.0029982692 0.0077473046 -0.011275863 0.006194696 -0.0035597214 0.00386904 0.023373276 0.00687012 -0.011061729 -0.008255151 -0.01585106 -0.00843644 0.0018814307 -0.0037212865 -0.011296864 0.0025469498 -0.0002636872 0.00436872 -0.015676335 0.00061760825 0.0036556935 0.0019992597 0.0068238387 0.00054118247 0.008415454 -0.011618638 0.005678927 -0.0059174043 0.010460197 -0.0011751517 0.0013057591 0.005853582 -0.009327369 -0.007782574 -0.0010000368 -0.0042897942 -0.009857517 0.0011618992 -0.008821817 0.00022306875 0.002294348 -0.00541707 -0.0017975935 -0.003075664 -0.011404259 0.003902807 -0.0067724492 -0.003828938 0.005773347 0.007305421 -0.011592031 0.0024822364 -0.0068082483 0.0011104136 0.00015292352 -0.0025352102 0.00060223026 0.0031469385 0.009237704 -0.0070498404 -0.008820404 0.013041138 0.002832335 -0.008826351 0.009393226 0.014083179 0.0059906146 -0.017151352 0.010087662 0.005511368 0.010559947 0.008866507 -0.0030285239 0.0070533757 0.0017911553 0.0055315867 -0.005722715 -0.011965775 -0.00027823623 -0.012641584 0.007172774 -0.007863907 0.01561802 -0.011639503 -0.0024251952 0.017466906 -0.0010867958 0.0009302175 0.0037015686 0.011890712 0.0024751527 0.008968344 -0.0073095826 0.011995478 0.004053892 0.009887327 0.0038681119 0.007785216 0.0072902143
s -0.007252516 0.012087118 -0.009434506 -0.00479046 -0.0032834352 -0.013724545 -0.0027396965 0.006411719 -0.0076163146 -0.0067427456 -0.007474653 -0.0025787237 -0.009987142 -0.0005640504 0.011212465 0.004001203 0.009466391 0.0010975936 -0.0013891332 -0.019075332 0.011205478 0.005237085 0.009266544 0.0053985575 0.008313845 0.009915216 -0.013126976 -0.009607561 -0.0024708346 0.008557044 0.013853815 0.00504133 0.012488112 -0.014368524 0.003808582 0.0044147717 -0.0064632823 0.0073379856 0.0008752082 -0.012266389 -0.0003549055 -0.009071287 0.002056682 0.0038529655 0.0029908568 -0.008874304 -0.008338088 -0.0014999699 0.008437759 -0.0024784033 0.0005777377 -0.0038819918 -0.0058524115 0.0013331932 -0.002118228 0.00703289 0.0058702067 -0.002865659 -0.008367236 0.010140491 0.007856881 0.0035306667 0.009445212 0.009520887 0.0033107726 0.007738388 0.013438529 0.01136518 -0.0023316303 0.0068871984 -0.0028649778 -4.3008677e-06 -0.004084564 0.005747693 0.016318884 0.010903925 -0.0011674524 0.008471119 -8.573891e-05 -0.0048495694 -0.0018283007 -0.004081241 0.0009377002 0.011201634 -0.0027980197 0.0022091148 0.018567808 0.01035212 0.0048692147 -0.004934911 0.017468626 0.012007423 0.0038895083 -0.0012750002 0.00247392 -0.0013950573 0.009961102 -0.0056890803 -0.005388355 0.009532317
but 0.010568807 0.012446924 -0.001253612 -0.011165302 0.010779197 -0.01597079 0.0133121805 0.024270633 0.005131635 -0.01706471 0.0059489515 -0.021859994 -0.0074418676 -0.002160955 -0.0031465713 0.0031485236 0.011863796 -0.00775195 0.0007753357 -0.021815533 0.0151215065 0.009125511 0.002256994 -0.005771654 -0.006251388 0.006115229 -0.0032027431 -0.00646671 0.0020320117 -0.0019199189 -6.4330794e-05 -0.0024449136 0.006519433 -0.019582136 -0.009168353 0.0033066557 0.013467384 0.0045785047 -0.001516742 -0.0055697537 0.010845555 -0.0075879246 0.002668662 0.0029016237 0.013250239 0.0052087195 -0.011847047 -0.0038133592 0.004433291 0.0051114038 0.004400735 -0.0014455459 0.0066796094 -0.009606516 -0.0043509053 -0.0010709565 0.010735368 0.0029986615 -0.007920479 0.007638087 -0.0038018958 -0.0106763095 0.010421403 0.0074685123 -0.0022802767 0.01832486 0.0043517593 0.0062846495 -0.01058873 0.008698227 -0.0064123776 -0.001269664 0.012848408 0.002678288 0.008597545 -0.005285081 0.010898772 0.003966542 -0.0034978143 0.0020906364 -0.01300737 0.0035586515 -0.007450515 -0.0007172765 -0.004000584 -0.00031390224 0.0213083 0.009170369 0.0053972327 -0.004084833 0.019840011 0.008873666 0.008521427 0.006548926 0.013598501 -0.0013908608 0.0019554205 0.0049301577 -0.0046343086 0.008836061
for -0.0040902747 0.0073200013 -1.1580081e-05 0.004616112 -0.0024288408 -0.017222034 0.0014102941 0.023591936 -0.008753388 0.0008113513 -0.0071206926 -0.02198735 -0.005540851 0.013508745 -0.0040602107 -0.00944118 -0.004814941 0.0015454965 0.0003722737 -0.015499085 0.0041354327 0.009315704 -0.003742346 -0.003918021 -0.0053743785 0.0004653807 -0.006586715 0.004519971 -0.005510644 -0.0062891003 0.0035488673 -0.007301389 0.009261942 -0.0038775133 -0.009598317 0.019958807 0.012855149 -0.009884638 -0.010021629 -0.0035841835 0.011422683 -0.01141623 -0.010793939 0.007224447 0.0116941435 0.006027353 -0.014825732 -0.010979896 0.004858645 -0.008882705 -0.003723586 -0.01042703 0.0117244115 0.007560614 -0.0038545465 0.011880078 0.0095020225 -0.0042371075 0.0016478007 0.011176412 0.0059692026 -0.00858084 0.0023892352 -0.002093013 0.0017297816 0.0059664687 0.003559685 0.019161094 -0.007440684 0.01779007 -0.009149227 0.005841845 0.011952828 -0.0011871951 0.0182629 0.011777325 0.0007664553 0.00095330714 -0.006180278 -0.0066109872 -0.014293107 0.001035631 -0.0132401595 0.012120023 -0.015851755 0.0026980299 0.006996199 -0.003309634 0.016901432 0.01213473 0.0095188 0.010324733 -0.002420426 -0.008314443 0.006517291 0.011905441 0.008053862 0.006556868 0.008152612 0.006082683
so 0.0033372543 -0.0074707554 0.0030909167 -0.0022318927 0.007895603 -0.006421925 0.0017520792 0.021001125 -0.001074865 -0.0051259655 -0.006505291 -0.016786186 -0.008103007 0.013309257 -0.007410278 0.0060912305 -0.007835066 -0.0033356375 -0.003639054 -0.020905765 0.013466278 0.008985966 0.004393206 0.003768131 0.0005874449 0.01019383 0.004096269 -0.012539049 -0.00813519 0.00022120579 0.008925023 -0.004705675 0.0057103564 -0.016553586 0.00024602748 0.012531621 0.0076650428 -0.0048258062 -0.009099701 -0.017966084 0.0012050907 -0.0117355455 -0.009536393 0.005496521 0.0124303065 0.0006802886 -0.012758403 -0.006643682 0.0103278365 0.0045547104 -0.004408431 -0.011756979 0.0021171016 0.00269047 0.0013527686 0.0070014014 -0.0047104214 -0.0112378895 -0.012341745 0.0027458135 0.007211642 0.0015071613 0.0067548887 0.0054539694 -0.0042414838 0.01204539 -0.0050082845 0.014112895 -0.0008841396 0.012720376 0.0066679697 0.0126741165 0.004968816 0.0007406185 0.007480164 -0.0076003666 0.009199249 -0.0044038533 0.004771867 -0.004619944 -0.0032425676 -0.0077563096 -0.016754793 -0.002837152 -0.013577694 -0.0013661142 0.0019076054 -0.00224573 0.000420831 -0.0020394106 0.015452835 0.009501669 0.010771685 0.0072622877 0.002054109 0.010643899 -0.0082662115 -0.0045839464 -0.0068585738 0.003721839
are 0.004474452 0.010226058 0.000991498 -0.009661742 0.01000167 -0.017347012 0.015696242 0.02103454 -0.007876713 -0.0118186725 -0.007346166 -0.017884938 0.008711624 0.0037180884 0.010126535 -0.013495943 0.004271553 -0.005305952 0.004922637 -0.025603922 0.013863647 -0.0019261335 -0.0041281753 -0.0074571907 -0.002765061 -0.0018975827 -0.007202327 -0.011378705 -0.0042840648 0.0013661623 0.006749654 0.0031083603 -0.0018715276 -0.015046065 0.0016770982 0.019256871 -0.006084516 0.0046292623 0.004790952 -0.0160631 0.011029671 -0.015496203 0.0035322665 0.0045560272 0.008661904 -0.006969207 -0.010652576 -0.004956139 0.0045352615 0.0023396073 0.008478411 0.0039315885 0.010671066 -0.004844774 0.008677278 0.0049913037 0.005963305 0.0006266569 -0.007945874 0.0068598595 -0.0017115149 -0.009661036 -0.0012288518 0.0026870645 0.0011447667 0.012127721 0.0068986192 0.011911342 -0.0015265921 0.003112418 0.0012183209 -0.001737926 0.009473415 0.012758607 0.017234864 0.008886043 0.0088781 0.009502975 0.0021176825 0.008034917 -0.0100747235 0.011017086 -0.0046018176 0.004813283 0.0008622186 0.0025239172 0.022224428 0.0065434836 0.017494323 0.003838472 0.02066251 0.009912249 0.009513873 -0.0034696155 0.017759249 0.011842301 -0.0006226237 -0.0048956503 0.004845657 -0.0077081355
have 0.012660806 -0.006257941 -0.008907707 -0.00040672292 0.009109491 -0.018430635 0.010497815 0.0298992 -0.011404732 -0.014246908 -0.008338277 -0.016965782 0.001021407 0.01711143 0.009085782 -0.0038756917 0.005274081 0.003921721 0.005855417 -0.01333837 0.01340418 -0.0041017556 -0.0018024608 -0.007673225 0.0069120643 -0.0007280101 -0.013508891 0.0033720096 0.0026756995 -0.0010445681 0.018754862 -0.0011197148 0.0030045812 -0.014059195 -0.0038850955 0.008695839 0.0072767525 0.0028705955 0.006044356 -0.022703938 0.0006466247 -0.012363365 0.003285642 0.005744692 0.004045619 0.0002553847 -0.013444586 -0.0015640134 0.013041654 -0.0016332448 -0.0042393333 -0.014302495 -0.0007793182 -0.0020093813 0.0024060167 0.016261628 -0.0022449307 -0.0003470914 0.0013533514 0.0054545724 0.0051564304 0.005210367 0.01670816 0.008630145 -0.012512436 0.022673216 0.012371226 0.01887983 -0.012933842 0.015490054 0.0056642652 0.0025577366 0.013173691 0.006602466 0.02035884 -0.00024389129 -0.0018480562 0.009522168 -0.01468527 -0.007932887 -0.012282954 0.0014921683 -0.013167454 0.014772106 0.00010232936 -0.003777356 0.015888326 0.0063294447 0.0067902696 -0.0049343314 0.02085168 0.0029891063 0.0081399465 0.009349513 0.0154761905 0.008272732 0.005722514 -0.006291003 0.005352094 -0.00029489063
us 0.009118323 0.009699574 -0.0008850503 0.002449002 -0.00609359 -0.008615741 0.01823421 0.020212658 -0.003550747 -0.014744406 -0.002620455 -0.012835716 0.007573912 0.009352878 0.0056194873 -0.0038594918 0.01158149 -0.0110573275 -0.009859881 -0.025669498 0.0064317184 0.00909811 -0.005444233 -0.005202179 -0.0072547747 0.0068924804 -0.008142219 -0.014149461 -0.0027560196 0.011845112 0.007917485 -0.006392315 0.010883631 -0.016571347 -0.014732632 0.02277438 -0.0023202423 -0.00831585 -0.003712248 -0.0213069 0.0052804677 0.0015279576 -0.0003013204 0.007121561 0.009162771 -0.0019221416 -0.011272022 -0.010844369 0.007537709 0.0030815816 -0.007841727 -0.013467446 -0.007534781 -0.006856467 0.0029031548 0.015945926 0.005970343 -9.0079375e-05 -0.0012288864 0.0034179252 0.0034524126 -0.014250461 0.008696136 -0.0014517532 -0.007068763 0.022030747 0.0003877053 0.007527524 -0.01964265 0.010533891 -0.0046892026 0.009749568 0.011068147 -0.00053187535 0.008440324 0.0042429375 0.006663636 0.00909601 -0.009648038 -0.0050471653 -0.012425293 0.0020040737 -0.010673791 0.010762111 -0.003198466 -0.00594205 0.016362352 -0.00037415084 0.009206128 -0.0039044518 0.0148341665 0.009733919 -0.004710627 0.009035959 0.0052162185 -0.0036697262 -0.0063467054 0.0035023312 0.0069395495 0.008591799
about 0.0043790992 0.0026558822 -0.0038573816 0.007704665 0.0040898644 -0.002907669 0.0028632362 0.011813661 0.004154199 -0.0050216666 0.0017387 -0.007581678 0.0049335905 0.007504816 0.004150348 -0.0075574997 -0.0033958147 0.0017873467 -0.0073930584 -0.010257007 0.003476657 0.0054911766 -0.0072829225 0.007903774 -0.0011379888 -0.0044461833 0.0014767731 -0.0040841405 -0.010825628 -0.0029551988 0.0048385477 -0.009216263 0.004398532 -0.004796905 -0.0053698397 0.009263641 0.004632973 0.008596037 0.0008418702 -0.0051725483 0.0042935694 -0.0058940295 -0.010882746 0.007816586 0.0024667976 -0.010864578 -0.010169848 -0.0049381773 0.005734731 0.0054238294 0.006721833 -0.010494615 0.0016825049 -0.0033183054 -0.0057043266 0.010220851 0.0046507167 -0.0042371075 -0.0125836665 -0.0032800138 0.0016804105 0.005422799 0.009945002 -0.007806035 -0.012968904 0.014028065 0.0012717432 0.0015310695 -0.00022821833 0.00071433454 0.0042042607 0.0029866756 -0.00354961 0.001716711 0.012278663 0.010932082 0.0024598963 0.0068877744 -0.007931678 -0.0011973629 -0.0081863515 0.0021564658 -0.0077276938 0.00072600413 -0.011614253 0.008317201 0.010596707 4.7959784e-06 0.00043985143 0.009501112 0.0006735416 0.00695945 0.0024298914 0.008436055 0.0134991435 -0.0004938261 0.0034512696 -0.0035057324 -0.00869138 -0.0030706536
on 0.004620578 0.010139659 0.0076269265 0.0060161985 -0.005339768 -0.007189149 0.002580754 0.020922428 -0.0042421003 -0.0018441188 0.0012964484 -0.009322644 0.008662579 0.008201475 -0.0034297777 -0.011057854 0.009365429 -0.0103505 -0.0062160804 -0.015873121 0.0056909528 -0.0023230957 0.00018046064 -0.0009127168 0.0027672409 0.0076575866 -0.010164775 -0.0013015883 0.0011719107 0.0048592184 0.015573895 -0.0054320446 0.013280786 -0.022161657 -0.00095738674 0.003426686 0.0020136158 -0.011978685 -0.0025848963 -0.020188946 -0.00092401245 -0.0059245387 -0.0015403597 -0.0024347852 0.0006260522 -0.008038753 -0.0068869884 -0.0057089985 -0.0056590512 0.00031988657 0.0077242227 -0.001589931 -0.007713856 0.0019159326 -0.007025124 -0.0027155872 0.0016986101 -0.0024392607 -0.015707994 -0.0022872724 0.0020084933 0.002156604 0.0003317937 0.008562823 -0.007226211 0.014648398 0.016388644 0.015182124 -0.015435045 0.01661614 0.0021390717 0.01341752 0.0071510687 -0.00034142577 0.012926227 -0.0026553462 0.002613971 0.008398624 -0.0009957012 0.008061502 -0.013683617 -0.0030621819 -0.0052779387 0.009911199 -0.016112981 -0.002136964 0.01771887 0.0021469293 0.004192024 0.008549036 0.023770697 0.0002023522 0.0032453844 -0.0022718539 0.006734103 0.0039561507 -0.0036676694 0.0053856373 -0.0043465197 0.003028632
can 0.0020922646 0.007236931 0.00025440325 0.007388888 0.0024638167 -0.015853884 0.005115102 0.018923681 -0.0068844724 -0.014331 -0.008330193 -0.017549854 0.0059631476 0.009667393 0.010221571 0.0029248823 -0.0040478464 -0.0008989 0.006212006 -0.013490613 0.009202915 0.00864494 -0.0068757837 0.00758746 0.0073897364 0.009603946 -0.011989319 0.0024689124 0.0020927128 0.0003567867 0.0013345922 0.004993692 -0.0014228441 -0.016113963 0.00047760218 0.01797263 0.012424618 -0.0067645838 -0.0101308795 -0.0011900025 0.008621097 -0.009694655 -0.011607687 -0.0053690104 0.0026462134 -0.0049174214 -0.0050326176 -0.0016368803 -0.0003143361 -0.0051916023 0.010461209 -0.010439901 -0.00567836 0.00697111 0.001660068 0.013606907 -0.0032414761 -0.00886793 -0.005620888 0.0019051007 -0.0059659 -0.00514545 0.008958889 0.007145073 0.0018358919 0.013332297 0.0006610248 0.006207169 -0.012806365 0.01551959 -0.0070276214 0.0074962913 0.004129302 -0.002592781 0.0014768534 0.008277351 -0.0072400793 0.0019076677 -0.0018817732 0.007393001 -0.012037579 0.005101884 0.00085919944 -0.0005741104 -0.010789762 0.0027878226 0.016653161 0.0051435344 0.014924868 0.003590949 0.012533988 0.0041488223 -0.0055954005 0.0033869524 0.011974319 -0.004650545 0.0009505496 -0.002757188 0.0011880618 0.008088731
as 0.00044190997 -0.0025415034 0.005212871 -0.01002658 -0.0066972477 -0.013769734 -0.0012181286 0.019882087 -0.0022114809 -0.00991357 -0.009601678 -0.012605804 -0.0016295295 0.010317379 0.010727143 0.0015712263 0.01080159 -0.013520957 0.0065422864 -0.019969923 0.015610681 0.0058233384 0.0055704787 -0.011377653 -0.008764235 0.010411826 -0.007233594 -0.0011892911 0.00096009916 0.0022527152 0.018486373 -0.0015553412 -0.0033562072 -0.019701002 -0.004690731 0.002810352 0.0116535155 0.0011109969 -0.009656548 -0.004489231 0.01172835 -0.000715804 0.0032379976 -0.010379081 0.008164504 -0.011338604 -0.010647672 -0.0011348508 0.003106194 0.002267307 0.0040771686 -0.004553275 0.0072611985 0.006533531 -0.0068211113 0.013955501 0.0074250624 0.007861363 -0.0032012982 6.681116e-05 0.0002454377 -0.0048032585 0.005210791 0.010935208 -0.0047490173 0.015937377 0.009655503 0.0006716737 -0.0038229623 0.0196415 -0.0024846005 0.008552619 -0.00028392771 -0.0026196553 0.01828472 -0.0005102479 0.008009307 0.0046687895 -0.007363092 0.0023416576 -0.009139905 5.6222256e-05 -0.008764671 0.012597777 -0.00974706 -0.0018617924 0.005213648 0.013965582 -0.000558756 0.010170373 0.016550625 -0.00020011557 -0.002505402 -0.0075883484 0.006093236 0.01181553 0.01137026 -0.00098555 0.0019947088 0.008849881
be -0.0026578351 0.0014685761 0.0014218832 -0.008743513 -0.007760311 -0.019187696 0.015090103 0.021517236 -0.008300337 -0.014539552 -0.0013223342 -0.0072697056 -0.0016600558 0.0069304807 -0.002329687 0.0013056378 0.0034297816 0.0054257563 -0.012285427 -0.01975492 -0.0032434852 0.0024645964 -0.006104275 0.003565886 -0.005935625 -0.0048502525 0.0013579715 -0.011411607 -0.0029638556 -0.0053585554 0.017117674 0.008314769 0.0069053196 -0.0046004658 0.0016134189 0.0035299044 0.013216697 -0.012001459 0.007450892 -0.0077053118 -0.0006548226 -0.009056476 0.0060513476 -0.006051731 0.014652963 -0.007526787 0.0027716076 -0.0019363504 0.010738207 -0.0025231615 0.00688265 0.0033626407 0.004153049 0.00036573882 0.004251061 0.012968563 0.009682964 0.006925766 0.00076798507 0.010868464 0.011817898 -0.0036637567 0.0047213687 0.002470992 -0.0048341136 0.010637883 -0.0035328642 -0.0019372456 -0.011005935 0.018376034 -0.0045527383 -0.0018987597 0.010002886 0.0040395632 0.0102823125 0.0058220564 0.00445459 0.008321626 -0.0031341515 0.00036398345 0.00448106 0.004533565 -0.013050581 0.0128213605 -0.001702767 0.0007827268 0.007980465 0.0067433203 0.01304664 0.009493328 0.011159835 -0.0031058488 0.0026683302 0.00040889654 0.013554817 -0.0056997426 0.011069961 -0.009832363 0.0068180417 -0.010034165
with 0.011466366 0.009257214 -0.00019439832 -0.0052294317 0.0010234318 -0.007046247 -0.0021320798 0.017635858 -0.00011821462 -0.0007893439 -0.0091882665 0.0010575717 7.5157644e-05 0.0039581996 -0.0076275542 0.0014821696 0.008150431 0.0048065684 -0.008080921 -0.018461261 -0.0012411412 0.001301454 -0.0070078275 -0.009229372 -0.0015282108 0.0017877518 -0.012117205 -0.006119389 -0.0025979544 0.008208319 0.007198664 -0.0009931178 -0.0036492795 -0.014538991 -0.0029353807 0.014345415 0.0080657145 -0.0031420428 0.0006318846 -0.017277213 0.00035312292 -0.008570035 0.0035047787 -0.0029530593 -6.7354384e-05 -0.010632582 -0.005362798 -0.0081376145 0.0004326782 -0.0036092387 -0.0016860975 -0.007365541 -0.006851016 -0.0017735342 0.0010628285 -0.00040342615 -0.0068304236 -0.004727485 -0.01374371 0.0013565655 0.00821887 -0.0056533543 0.007341062 0.0054651233 0.004989419 0.012936719 0.013255174 -0.0040743407 -0.014348095 0.00011368715 -0.008195305 -0.00414744 -0.004058014 -0.00080210227 0.0076545104 -0.0012747574 -0.008094314 0.0069330423 -0.002394306 0.0042501 0.0038729094 0.008965882 -0.007079625 0.008303587 -0.010260768 0.00029282444 0.01266078 0.012514837 0.0017643772 0.0047967276 0.0017386026 0.0019080343 0.009827169 -0.0037872975 0.005863266 -0.006393181 -0.008466576 0.0069462094 -0.0048956573 0.00458845
or -0.0042632893 0.0006481753 -0.010266613 0.0047166264 0.008261516 -0.005841458 0.015052533 0.017689643 -0.013127349 0.0024096442 -0.007789387 -0.0036636733 0.005172592 0.00518354 -0.00563237 -0.0054465365 0.008841466 -0.011007405 -0.0010751747 -0.024346268 0.015334683 2.381469e-05 0.011172284 -0.007450588 -0.009125768 -0.007539276 -0.008047947 0.0009029791 -0.005224894 0.011253011 0.0114654135 0.0031992684 0.008867943 -0.003947634 -0.0058423807 0.017987126 -0.005782697 0.00018388021 -0.0013719851 -0.011742147 0.009265184 -0.009083391 -0.005891305 -0.0009267041 0.006794593 -0.005150618 -0.000110397305 -0.00800255 0.010727836 0.00058428 0.0035715303 -0.0028804457 0.0011099734 0.0010539773 -0.0038718742 0.0101475725 0.0014795199 -0.0053393217 -0.015951524 -0.0067455545 0.0037415342 -0.009820035 0.0051119276 -0.0036199654 -0.014196226 0.012244175 0.011785124 0.006402498 -0.016859192 0.01387487 -0.001381858 0.0002311528 0.004666855 0.0028747807 0.006414605 -0.0075702625 0.008819938 0.006771294 -0.0077348445 0.006966702 -0.0047779153 0.009175731 -0.010948156 0.014737189 -0.007960327 -0.008701721 0.0076125986 0.013537337 0.0081822295 0.0038785087 0.01977201 -8.8002176e-05 0.0012389453 -0.007998233 0.0040576416 -0.0043512783 0.0056044892 -0.0002159046 0.0069188904 0.0020302588
you 0.0041865143 0.007730831 -0.0036032917 0.0012312076 0.010011322 -0.008039682 0.011162742 0.0067004273 0.0039153956 -0.00080273254 0.003009389 -0.01826687 -0.0009799564 0.0077517675 -0.0045206924 -0.009467697 0.007836086 -0.009753516 -0.006790878 -0.0038780994 -0.0021725781 0.010503729 0.0022240258 0.003541823 -0.002585852 -0.004650517 -0.011906055 -0.0030287562 -0.008515608 -0.0013358248 0.014076053 -0.008133909 -0.0017988656 -0.01409098 -0.008991635 -0.0014574727 0.0017652928 0.007850403 0.0076247053 -0.01376137 -0.0062345793 -0.0067294394 -0.012115951 -0.0056910305 -0.0008071809 0.001481132 -0.012086674 0.00040198752 0.004483583 0.0058837547 -0.0010453479 -0.014264491 0.006865204 -0.00672831 0.004315323 0.0058845454 0.009658152 0.00020205088 -0.006783423 0.009322606 -0.004887263 -0.011681261 0.008671946 -0.0020474317 -0.008367788 0.005896977 -0.0054759313 0.006741226 -0.008191785 0.004863035 0.0015617172 0.008788884 0.0106994035 -0.00553264 0.0019478884 -0.007321955 -0.008305763 -0.0017155294 -0.00501026 -0.008823071 -0.009403163 -0.00032284996 -0.0005747881 0.0067809485 0.002570629 -0.010214104 0.0044774795 0.0020116796 0.014445431 0.0031877076 0.00984649 0.0056914142 0.005289609 -0.009125283 0.011343267 0.00880117 0.0061771506 0.0022957777 -0.007168367 -0.004557617
think 0.009939139 0.0009832716 -0.010577823 0.003311124 -0.0048230197 0.0004920864 0.008998622 0.0048077395 0.00050291786 0.0015036116 -0.0053112116 -0.0076024933 0.008915121 0.012496617 -0.008140189 0.0055709593 0.010957155 -0.0049031246 0.001270282 -0.011863429 0.01235737 0.0014322228 0.006720604 0.008612035 0.0043826434 -0.0063194134 -0.004098176 -0.0009164612 -0.00073200394 0.004398941 0.013947203 0.0041607493 0.0133163305 -0.015053195 -0.0075931945 0.0077130115 0.005658756 -0.002119081 -0.007395328 -0.009554922 -0.007075833 0.006088983 0.0018295344 -0.008297534 0.0071806 0.0030018743 -0.009076328 -0.0067463885 0.0029469458 0.009228175 -0.009136719 -0.0032012095 -0.0059248745 -0.0014937777 0.0026305355 -0.0021367555 -0.0022623895 -0.00040624378 -0.0101129655 0.009113626 0.006233752 -0.010728071 0.0012681502 0.0037958901 -0.0113295745 -0.0010096106 -0.005219373 -0.00079679635 0.0035699336 0.012982565 0.0022983078 -0.0055710995 0.008822835 0.006470347 0.0052715284 -0.007482605 -0.0013025496 0.0018321185 -0.010413755 0.0020338148 -0.002274165 -0.006078436 -0.0134881735 0.010003276 -0.012623489 -0.006819478 0.01236456 0.0017181147 0.0010879065 -0.0037613658 0.005164471 0.008662255 -0.0043918137 -0.0048122546 0.00084158435 -0.0025840907 -0.007081888 -0.011436241 0.008171477 0.0077322084
not -0.0012897858 -0.005841696 -0.0040301937 -0.0066341036 0.011300342 -0.009316215 0.001525325 0.01666149 -0.01407774 -0.005579909 -0.0069929855 -0.015631106 0.004667164 0.014893681 0.006865207 -0.011086952 0.009417933 -0.014031485 -0.010041964 -0.025807053 0.004927844 0.0037510225 -0.0017162355 -0.00037995673 0.009926913 0.007981857 -0.0055119395 0.0048059323 -0.00408092 0.00010790125 0.0025633466 0.006046907 -0.0027451233 -0.014970847 0.0038717277 0.009137555 0.0061401823 -0.010393482 0.0041133678 -0.0058535603 -0.006568525 -0.009904045 0.0040775253 0.0020165357 0.007907958 -0.001472571 -0.016978802 0.008406433 0.0014563991 -0.004046976 0.0038444358 -0.0057774503 -0.0041161915 0.004751168 -0.003369313 9.736503e-05 0.008590942 0.004476945 0.0009699743 0.004693273 0.004495553 -0.012243867 0.011660031 0.010236927 -0.0067460383 0.010667318 0.0023640806 0.008985969 -0.018261792 0.01738462 0.0006520968 0.015700903 -2.803908e-05 -0.0013945563 0.004238961 -0.0048687244 0.0040696864 0.007957844 -0.004133847 0.0030224363 -0.014866713 0.0009706278 -0.018050143 0.01072425 -0.011324839 0.006277406 0.01015041 0.011099712 0.012718708 0.0044722576 0.012824211 0.014984302 0.00554134 0.008330936 0.014883746 0.010241276 0.0068833395 -0.010682909 -0.0044352436 0.00060573925
do 0.0023532005 0.004429842 -0.0006614656 0.0054984493 -0.0028662048 -0.008327272 0.012132689 0.01637562 0.0015341457 -0.0011988553 -0.0033942293 -0.017285574 0.0025739693 -0.0038520484 -0.0012678965 -0.012459078 0.0010443643 -0.010811134 0.0056319926 -0.017360147 0.014949332 -0.0068418183 -0.002594573 0.000832288 -0.0024359904 0.0021147644 -0.0066495272 -0.00379936 -0.009485227 -0.008262072 0.012583206 2.8722527e-05 0.011036747 -0.016760338 0.0011784758 -0.002168948 0.010608777 0.004127138 -0.0067665 -0.00063736795 -0.0036031504 -0.013322783 -0.0012054909 0.0025949867 -0.0026036089 -0.010260668 0.004203424 0.00064384606 0.0032262448 0.003198291 -0.0026664962 -0.0029976172 0.003252244 0.009093224 -0.0060524517 0.0063510463 0.007223939 -0.008311461 -0.014271463 0.01148003 0.009489499 -0.007114855 0.010792363 0.0013541708 -0.009259216 0.006799335 -0.00045150763 0.012991748 -0.0054735793 -0.0002483059 -0.00069806277 0.0016478575 0.011176079 0.0011778416 0.014963826 0.0035936027 -0.0030446744 0.0103001 -0.0010993461 -0.0044265464 -0.009665768 -0.0015629006 -0.012658656 0.008689618 -0.015330733 -0.007801797 0.0127472505 0.0031196934 0.011814031 -0.0016223701 0.00871391 0.0071233716 0.007897435 0.0019237157 0.0181145 0.0071589383 -0.0060332064 -0.0035629494 -0.0076476736 -0.005750459
what 0.00029456048 -0.007162092 0.007422148 -0.00043898122 0.00084862416 -0.015526146 -0.002662412 0.006073492 0.005741366 -0.008715294 0.0020635054 -0.01442121 0.0091977 0.009261684 0.002688383 -0.0072931033 0.0033596796 -0.0061577843 0.0049655903 -0.010099527 0.0066382377 0.0061228727 0.005467811 -0.008249612 0.009579211 0.0027267812 -0.009556483 0.0054793074 -0.0056834016 0.010204325 0.0058650007 0.0066715055 0.008064397 -0.015030975 -0.0069377674 0.018485105 0.004861172 -0.0082598915 -0.00036690244 -0.0125142895 0.0037251988 -0.013062146 0.004386009 0.0004624004 0.014375001 0.0027763972 -0.010039443 0.0024874015 0.0019859087 -0.009229521 0.009209939 0.0042352444 0.011287129 -0.004560548 -0.009486497 0.00964829 -0.006567462 0.007010964 -0.0036006786 0.008640801 0.009260608 -0.0032509598 0.0036117958 0.0015317698 0.005124413 0.002656868 0.0035756812 0.005100654 -0.0036184322 0.015624407 -0.0051101246 0.008693255 0.0004884467 0.0062797284 0.01670085 0.005550156 -0.0037972864 -0.00035651017 0.003444057 0.009068406 0.0012926842 -0.0014358491 -0.010283207 -2.2230179e-05 -0.011255498 0.0012123679 0.004647181 -0.0032374146 0.014728643 0.011958002 0.018435493 0.00708957 -0.0061995615 -0.0074275294 0.011064586 -0.00569855 -0.00624278 -0.0006248365 -0.0019435757 -0.00955463
only 0.008696114 -0.0060581802 -0.009048216 -0.0041023116 0.0036263382 -0.0111552 0.0008162751 0.022902245 0.0052008317 -0.013797672 0.0071905474 -0.0031356895 -0.007845736 0.0038220393 0.006524809 0.0036669597 -0.0016855916 -0.010579642 0.0023590697 -0.023913972 4.2668966e-05 0.0015607643 0.0072780782 -0.0071173976 0.0053580157 0.00087916007 -0.0011496175 0.0031954844 -0.003121699 0.009592185 0.007018552 -0.00866611 0.014452591 -0.015489013 0.0017019558 0.005728685 -0.0037737172 -0.008713311 0.0039334763 -0.011012501 0.0037724604 -0.014415524 -0.008351699 -0.006501319 0.014969724 -0.010510374 -0.0006214854 -0.0020126614 0.0030083167 0.009563718 -0.002620237 -0.012486036 0.00226826 0.006995338 0.0084275585 0.0014102628 0.003853449 0.0032588677 -0.011484417 0.009819688 -0.003184675 -0.00138094 0.010435569 0.0053843735 -0.00956441 0.012582345 0.012496049 0.016598802 -0.018225938 0.015140095 0.004169597 0.0035518692 0.014490024 -0.0011294526 0.0066707144 -0.004500506 -0.002868708 0.0026906673 -0.0076173204 -0.0060421363 0.0020518396 -0.0035827355 -0.014664671 0.013878675 0.002679526 0.001921749 0.011106802 0.004348075 0.0059428317 0.00941661 0.004182491 0.006120422 0.006854978 -0.0017913164 0.010701145 0.0076859132 0.011339349 -0.00043592902 0.010662921 -0.00657424
new 0.00667094 -0.0017890459 -0.005493253 -0.0005446126 -0.0027073298 -0.013464743 0.0076559745 0.02054428 -0.008983405 -0.013887047 -0.005148362 -9.9996774e-05 -0.010370211 0.013868788 0.00091571093 -0.00020142648 -0.0007510972 -0.008403239 0.0013999393 -0.0047078296 -0.0027851905 0.0008255544 0.002658929 0.0033876398 0.0073608607 -0.0026443617 0.0046545872 -0.007990489 -0.0053002997 0.010416155 0.011121979 -0.008937108 0.0022637679 -0.016647685 -0.0039833137 0.012691455 -0.004867427 0.003776329 0.005797004 -0.011773987 -0.007855088 -0.0066230353 -0.005120539 0.0032178282 0.013664036 0.00083317806 -0.006246731 0.0019212125 -0.0049345004 -0.0009211138 -0.00060905126 0.0055215904 -0.004438793 -0.007828345 0.0018639897 0.0062909424 -0.0064230165 -0.0070587494 -0.005862753 -0.0010068296 -0.006675984 -0.0067889756 0.0013143512 0.0066900123 -0.0024493472 0.008965398 0.00405533 0.0022916195 -0.0033531566 0.0076400936 0.0051003457 0.0028787102 -0.00495062 0.0030720485 0.016506154 -0.0036585864 -0.0049502654 -0.00063757057 0.0053975848 -0.0013987521 0.0059489217 -0.006849829 0.0024917594 -0.005217843 0.0040443223 0.00017588817 0.011113648 -0.0035147278 0.013485693 0.007839498 0.002129661 -0.0053889034 0.009029244 -0.005537215 -0.001956409 0.0055856924 -0.004111859 -0.009214883 0.010518817 -0.0021008498
how 0.0005740413 -0.0015963337 -0.0060878405 -0.0067706434 -0.0038761855 -0.014171589 -0.0027759247 0.023919156 0.0034119503 -0.009066705 0.00030094132 -0.016791796 0.007222738 0.013255423 0.0023580706 -0.009976248 -0.001172121 0.0018575448 -0.004752259 -0.00982892 0.01458799 0.00665207 -0.0035087399 0.004310401 -0.0024678777 -0.005624998 0.0039817095 -0.012294631 -0.004867592 0.00041802422 -0.0019209418 -0.0014849323 0.010309101 -0.014685871 -0.009774875 0.014667335 -0.00035402604 -0.009728009 -0.0002017697 -0.00941206 0.009761467 -0.0043850043 0.0051358114 -0.010421035 0.009726077 0.0046621426 -0.003889358 -0.003989167 0.003461739 -0.0004254665 -0.007326997 -0.011916444 0.0024900464 -0.0024528694 0.008800936 0.0031901898 0.007175743 0.00038618056 0.002534277 -0.0066118957 0.0053235698 -0.004793653 0.007359907 0.00028160473 -0.010937156 0.01767208 0.0017636041 0.008779023 -0.014223255 0.012075787 0.009013506 0.003311246 0.011158524 0.002517528 0.015633026 0.011722095 0.00020760765 0.00062711746 -0.013607572 0.009318579 -0.006537204 0.003911525 -0.009374852 0.013867668 0.0021585554 -0.0005360621 0.012399153 0.009607205 0.008335827 0.008780745 0.009171276 0.0025505854 0.0074497936 -0.0033604095 0.0061389967 0.012210909 -0.007944819 -0.0058692847 -0.001897379 0.005165518
from 0.010637897 -0.0034793967 0.0038768614 -0.0025462462 -0.00706562 -0.013577887 0.005142583 0.013535079 -0.0048034284 -0.012320208 0.0032693886 -0.0023009274 -0.001921113 0.009916456 0.0013748168 -0.0045792866 -0.0046765907 -0.0024915866 0.0011843917 -0.0093207965 0.012981727 0.0065049147 0.006662136 -0.009138686 -0.00085102784 -0.004561432 0.0026592254 0.0040634754 -0.009335418 0.003108349 0.013127792 0.001538348 0.0065835835 -0.01865403 0.006494648 0.0032023937 -0.0024155334 -0.00840544 -0.0073149297 -0.015128323 -0.006902598 -0.004766199 -0.007311659 -0.0032010032 0.013011044 0.0018310527 -0.0046186144 -0.0029312507 0.012881212 0.0010239058 0.006161029 0.0028693497 -0.008006943 -0.010181678 0.009231667 0.008166489 -0.0007882838 0.002910863 -0.0112940585 -0.0029830239 -0.0048719603 0.003152302 0.0040605445 -0.0068232766 -0.011532097 0.016973695 0.0029921883 0.002475667 -0.011211609 0.009034343 -0.0041777757 0.003497434 0.009925819 0.004551954 0.006117997 0.0049588103 0.006262875 -0.006472897 -0.0125738615 0.00575128 -0.014094265 0.002544277 -0.018373359 0.015267692 -0.012111076 -0.009117305 0.010861365 0.0027659137 0.015295865 0.011865194 0.011275694 0.008727774 0.0076883556 0.00053102535 0.00469596 0.0037834002 0.0036522383 0.0055702557 -0.0023014923 -0.010331657
this 0.0068525355 0.011428387 -0.008370051 -0.00214848 -0.0037220633 -9.701366e-05 0.013539161 0.010131903 0.0028203398 0.0024276886 0.0026154974 -0.014574527 0.0025970286 0.002098833 -0.0011072037 0.0030943893 -2.9177447e-05 0.0077482234 -0.0021559764 -0.009151621 0.0013702217 -0.0068408274 -0.008610216 0.003949087 -0.006211934 0.0035247796 0.0003815902 -0.009172137 -0.006069045 -0.0046125064 -0.0038007232 -0.00015166932 0.013202129 -0.0136691155 -0.006279252 0.014483077 0.011522562 0.008523701 -0.010457523 -0.001722973 -0.005051292 0.0033155952 0.003984919 -0.0037985065 0.011057576 -0.008979631 0.00074355694 0.0036527067 0.007737627 0.0062942756 -0.0021259254 0.00026806092 -0.0048564584 -0.007045601 0.0021497565 -0.006346585 0.00029272656 -0.00016231614 0.0038693747 -0.004975494 -0.00030331538 -0.0065352726 -0.0012816959 -0.00016142009 0.0014096409 0.00134786 0.0017898055 0.013664858 -0.007038238 0.0024333878 0.0069628195 0.0045613036 0.0030323602 0.011430826 0.013841808 0.0046448805 0.004017288 -0.00063878956 0.0051702317 0.004654228 -0.008437296 -0.0049147066 -0.0061287223 -0.00410391 -0.0013329403 -0.010858997 0.00557062 0.0056911362 0.0073956433 0.00464936 -0.0024282688 0.0070109447 0.00725789 0.003591101 0.0140235135 0.004273144 0.006970675 0.0071321977 -0.00010610373 -0.0011608419
time 0.0037976382 -0.005733281 0.0042961105 -0.006578505 -0.0019247787 -0.009128662 0.012634673 0.013737728 -0.003528866 -0.007393699 -0.003959466 -0.008817655 -0.005587177 -0.00011793889 0.0015373388 0.002166492 0.0035766712 0.0042342227 -0.0011412133 -0.013818717 -0.00326381 0.008075019 0.008205162 -0.007296031 0.0051741838 0.010492166 -0.009194442 -0.005164047 -0.012449438 0.00449639 0.0020253754 0.001809112 0.0131457215 -0.016019575 -0.011602982 0.008512292 -0.005752861 -0.010701876 -0.009932076 -0.008136146 0.0005055636 -0.0032079448 -0.0035859544 0.008525212 0.013526404 -0.007455544 0.004408365 -0.010047904 0.00059046084 0.0030215522 0.00044756528 -0.0076672505 0.0016263499 0.00041602735 -0.010150336 -0.0012607502 -0.006970603 0.00260942 -0.005551403 -0.0051602297 0.007814431 -0.0023659253 0.0069450815 0.006032034 -0.007797592 0.015014965 -0.0041708415 0.002193588 -0.0134067545 0.00782634 -0.008047517 0.012699443 0.009309925 -0.005025085 0.0124992905 0.008028657 -0.0067905816 0.0065806303 -0.010807368 0.008854729 0.0013125768 0.0010718752 -0.014968039 0.0036004253 -0.0053162603 -0.0007342322 0.016714664 -0.0003446826 -0.003815316 -0.0072306376 0.0064898026 0.005406779 0.002083829 -0.002098488 0.015311738 0.0029936635 0.0073902193 0.002163265 -0.0064110495 -0.002341813
exploration -0.0061642043 -0.0048828563 -0.0043214355 0.005050174 0.0004621648 0.0021660354 0.0017226905 0.0057361624 0.0013961917 -0.0021465507 -0.002075632 -0.009582836 -0.0061739 0.008143453 -0.00606322 -0.011429473 -0.007921935 0.0059898673 0.0023301793 -0.0030173317 0.013862158 -0.005406777 0.0050815805 0.0017709248 0.0064654355 -0.002537717 0.0068359715 -0.008049265 0.0040233824 0.008300869 0.004524043 0.004814201 0.010085347 -0.005609889 0.0054023913 0.008981948 0.00097428454 0.0057175066 0.004301418 -0.010276376 0.0031510354 -0.0039937156 0.0026906668 -0.0058000605 0.00025591016 -0.0021177013 3.400148e-05 -0.0074875383 0.009769264 -0.0026629113 0.0063915183 -0.00092369324 0.007938422 -0.004997221 -0.0037655246 0.0065261326 -0.0020780207 0.004815742 -0.010195599 0.0045928876 0.0015834991 -0.0030535224 0.0065025277 -0.0016073241 -0.00765132 -0.0017090773 0.005840657 0.010616514 -0.01183848 0.01571487 0.0034224968 -0.0017134481 0.0021226648 0.0057989364 -0.0013479785 0.0035916113 0.0060027773 0.007994143 0.0026022943 0.0032357138 -0.0057314346 -0.005114837 0.002323639 -0.0030537797 -0.0062376964 -0.0047535845 0.013995702 -0.0039686924 0.008272146 0.0038781199 0.0029927152 -0.0044802576 -0.0063776695 0.0036475917 -0.0029128457 0.008339547 -0.0019294149 -0.0111977 -0.0042685485 0.007232694
will 0.0011336382 0.0098241605 -0.011234318 -0.011823489 -0.0030668771 -0.011055745 0.00040824333 0.0100016575 -0.013127537 -0.007776555 0.004471673 -0.02113934 -0.0055665714 0.00849636 0.0057321955 -0.012583881 0.010656109 -0.012804853 0.0015187055 -0.008163354 0.012712296 0.009529459 0.009989265 0.001106738 -0.00653429 0.0071586133 -0.012855624 -0.009835825 0.00033327143 -0.0060927505 0.0031130495 -0.00370576 0.00946756 -0.0072914073 -0.0017501342 0.016687958 0.0019786358 0.0012084786 -0.007966921 -0.014534658 -0.004958901 -0.006567223 0.001013156 0.004041173 0.003449392 4.0783852e-05 0.00080153963 -0.0069546285 -0.00034592816 0.00030099993 -0.0037719803 0.00213663 0.009431705 0.008246903 0.008424789 -0.002310506 0.00069229334 -0.009753699 -0.012614816 -0.005694357 0.007448617 -0.004077712 0.00012744032 0.00898833 -0.0050730975 0.0124373585 0.0022879168 0.005886624 -0.013222888 0.019180072 0.0014862263 0.0010882483 0.010853209 0.0044063497 0.007384273 0.010271607 -0.0026363926 0.010476815 -0.009375743 -0.007849498 -0.009690436 -0.0022246297 -0.010820552 0.0057770503 -0.0032888819 0.0029832465 0.01153955 0.0077633155 0.0064265816 0.0038600455 0.011158892 0.004341986 -0.0015710328 -0.004066836 0.011699472 0.0061637354 -0.007813148 0.0028922732 -0.00019654314 -0.0036976675
company -0.0037079763 -0.0033633127 -0.0057641626 -0.010964643 9.798388e-05 -0.012012301 -0.0022601648 -0.0005976623 0.008454828 -0.00407123 -0.008875044 0.0012937656 -0.008481467 0.0004377828 0.003506443 -0.00854365 -0.008120542 -0.008209467 0.006539592 0.0027884985 0.006389055 0.003653429 0.0048569813 -0.004488524 0.010004358 0.007308168 0.002611024 0.0076494836 -0.010106926 0.0017819563 0.012194602 -0.0011759013 -0.004429561 -0.0066904575 -0.004021067 0.0014428209 -0.0004381068 0.0064528384 -0.00044395492 -0.0002997792 -0.0027695848 0.005824938 -0.007984767 -0.009625074 -0.001438605 -0.00803908 -0.007206211 -3.4853998e-05 0.0035590783 0.0020090004 0.0054400344 -0.0036338053 0.0030085966 -0.000107092244 0.0075564105 0.010110899 -0.0016050048 0.00058470014 -0.008708455 -0.0035619908 -0.0056657116 -0.0015831537 -0.0024442708 -0.0037539387 -0.00062224444 0.0068257106 -0.0068631945 0.004940007 0.0013808504 0.008305401 -0.0034002478 0.011602972 0.011549986 0.0012607542 0.0044139293 -0.008430095 -0.0044363183 0.0009856044 0.0021227468 -2.9696643e-05 -0.01059733 0.0063680806 -0.01112512 0.011143174 0.0025721313 -0.0077859703 0.0074900524 0.00905769 -0.003372346 -0.005548306 0.013498003 0.004207465 0.010917603 -0.009832038 0.0027216298 0.008414763 -0.0008308048 -0.0028947429 -0.0066133803 -0.0059979125
space -0.004432592 0.011219911 -0.0032634886 -0.010385559 0.00992085 -0.012373238 0.0042439834 0.014247197 -0.00050497067 -0.01064333 -0.0024855107 -0.012348142 0.008220014 0.012095276 0.0030490574 -0.009072932 0.0050104004 -0.0022357837 -0.008164486 -0.019487325 0.0022072087 0.0050696447 -0.0065835407 -0.006209657 0.008654801 -0.0027157085 0.0044540055 -0.0023937123 -0.00965829 -0.0033275285 0.006474005 0.0042957035 -0.0012608911 -0.01531589 -0.009645586 0.015560502 0.00067633064 0.0019114371 -0.0023207439 -0.017224181 0.0008462807 -0.0046080565 0.0005325154 -0.008938666 -0.0007937132 -0.008147709 -0.0023135212 -0.005102141 0.0033636214 0.0049633468 0.005352679 -0.0025997646 -0.0012612524 -1.094922e-05 -0.006193837 -0.0019077098 0.009748162 -0.0055066287 -0.015173337 0.0068038744 0.011414895 -0.0036415618 0.007819886 -0.002828612 -0.008881125 0.00031300564 -0.0032377588 -0.0017973218 -0.013728116 0.017065985 0.008524138 0.0030335956 0.004700712 0.010661907 0.009381844 -0.003121022 0.003226173 0.0041859965 -0.0077004256 -0.0055957315 0.005440843 0.009656648 -0.016255401 0.00017351322 -0.0050920835 -0.0009433416 0.0017409538 0.012605238 0.0009850729 0.006942073 0.019047575 0.0060630986 0.006633202 -0.0024168477 -0.00057576864 0.0045084744 1.1153279e-05 -0.012437105 0.008024483 -0.007908838
at 0.007065939 -0.0026745142 -0.010659445 -0.011108381 0.007760753 -0.012466683 0.009296225 0.009962252 0.0072625666 0.0026981703 0.007964346 0.0013281337 -0.0084212115 -0.005778986 -0.0042619905 -0.0031622252 0.006239798 0.0011545205 -0.003550035 -0.0055900807 0.0006718969 -0.0047858288 0.005808001 -0.010817185 0.0012933486 -0.0042234813 0.0049533527 -0.0058970475 -0.00014131604 -0.004745855 0.015037889 -0.0058098254 0.007399046 -0.004284207 0.0068232315 0.0011790112 -0.002084336 -0.007638787 0.005792852 -0.0123501 0.0065380232 -0.004914363 0.0049766693 -0.006543743 0.00452329 -0.001392593 -0.012538578 0.0078109526 -0.00015934417 0.0067178025 0.0007086664 0.0013109948 0.0034336578 0.008181364 -0.008852636 0.0118858395 0.009365162 -0.0001675008 -4.0889016e-05 0.0059085446 0.006266645 -0.0056831846 0.006930996 0.0012988831 0.0013957756 0.015644241 -0.0036659862 0.0054657916 -0.015056505 0.0052803108 -0.009906876 0.006746735 0.0017581804 0.0015476696 0.012535331 -0.006557003 0.0018904968 -0.0005446719 -0.0069831135 -0.0075950455 -0.011093933 0.009532259 -0.0135566015 0.009504007 -0.0088581825 -0.002770508 0.010801758 -0.006235068 -0.0010583582 -0.0058991727 -0.002163186 -0.0007565395 -0.0012055963 0.0006314385 0.006381015 -0.0053115305 -0.0028296043 -0.004714508 -0.005647208 -0.0068342085
any -0.0008440416 -0.0061439117 -0.009620283 -0.009447722 0.004997906 -0.014863421 0.00057403755 0.018378763 0.004894184 -0.011045905 0.0049325437 -0.015142043 -0.00038665443 0.010753877 -0.0014872113 0.0067444183 0.0010409972 0.0022076939 0.005258659 -0.019096473 -0.0019889409 -0.0053371866 0.00013521228 -0.008031377 0.0005655844 -0.007351325 -0.0020896601 -0.0026880752 0.003352433 -0.0075149997 0.002160342 0.005529431 0.012944572 -0.009467792 -0.001600119 0.0006719566 0.0033622668 -0.009762331 -0.008106433 -0.006242644 0.0016272046 0.0017071308 -0.012023402 0.0011566285 0.006279728 -0.0064006634 -0.004109355 0.005103732 -0.0045330795 0.00076404447 0.0045824973 -0.0023188172 0.0040361853 0.0073949746 0.0061454554 0.006961251 0.008716743 -0.008897114 0.003070302 0.006029146 -0.0037842225 -0.0068610553 0.01051051 0.006207855 -0.0133671425 0.008406218 0.0033478723 0.006381028 0.0007984332 -0.0002969657 0.008962791 -0.0057189735 0.009960931 0.011755203 0.0023396697 -0.007829793 0.006855929 -0.0070837205 -0.01158998 -0.0011940205 -0.009882445 0.010095761 0.0016258053 0.0053991685 0.0029854134 0.008199317 0.013138965 0.006832502 0.010094172 0.008256281 0.012130609 0.010480363 -0.005596937 0.008897487 0.015316884 0.012349223 -0.008022382 -0.0054067187 0.0005898958 0.0037098576
exploitation -0.0070899716 0.0014242304 0.0052028187 0.008534849 -0.0019264579 -0.0028336602 0.009038883 0.005413038 0.0002645918 -0.01227069 -0.00046782274 -0.00020012594 0.0044389297 -0.0070732986 -0.0040759505 0.001409811 0.002501006 -0.0063608624 0.0048002712 -0.0033564428 -0.00513235 0.011133074 -0.0070907134 -0.0037209543 0.009876837 0.0017873234 -0.007316255 -0.0002709094 -0.0061047883 -0.0058250087 -0.0042630974 0.004515854 -0.0066636167 -0.0007165745 -0.006928029 0.009905682 -0.0027565993 -0.0065825563 0.0061346227 -0.013520243 0.0023813047 -0.004622698 -0.008185223 -0.007829317 0.009729125 -0.0052701575 0.0021083336 -0.010290585 0.0031446903 -0.0016568741 -0.0054835556 -0.0052845418 -0.0079197055 -0.0038684253 -0.00283323 0.00010104928 -0.0046404884 -0.009939895 0.0024347634 -6.410077e-05 0.0076362095 0.0014627075 0.01120971 -0.003012826 -0.0112024555 0.0059381463 -0.006617133 0.009571988 0.004459369 0.005011517 0.007274913 0.010725725 0.006613237 0.006860401 0.012973117 0.0022188518 -0.007944323 -0.007080772 -0.0037673996 -0.0009205885 0.0067222654 -0.008550852 -0.006507534 0.012078692 -0.0045944904 -0.009954866 0.0070747393 -0.0042128987 -0.0022694976 -0.005212541 0.004897219 0.009839899 0.0053161797 0.008284535 0.013353209 0.0062735984 -0.005418704 0.0058440273 -0.008944828 -0.0051376172
t 0.009745831 0.0094396835 -0.0068443967 -0.00969661 0.009311578 -0.010268206 -0.00067931216 0.017505895 0.003331584 -0.0001842557 -0.0030490058 0.0024046449 0.008046401 0.010404965 0.010495519 -0.007849148 0.0020071524 -0.003863373 0.005030522 0.0006061649 0.008893041 0.0057708356 0.0075570024 0.0052744136 0.00023273888 -0.007598385 -0.004420226 0.0072784275 -0.007800235 0.0025965024 0.00962699 -0.007480309 0.011623988 -0.005229272 0.0005098389 0.0144120725 0.0037614906 -0.00015346051 -0.00993389 0.0035199288 -0.008439904 0.0050703054 0.0031511462 -0.0004960183 -0.0037807291 0.008246945 -0.004808726 0.0046749436 -0.0011525055 -0.0046744463 0.0007799326 -0.011360525 -0.005447394 -0.010055628 0.004838492 0.0035008963 -0.0001932033 0.004106704 -0.0058310824 -0.005713326 0.0047232695 -0.0082954 0.004144478 0.010055872 -0.004084346 0.012422059 0.0079837 0.0012742089 -0.0108182775 0.014954697 0.001514003 0.002444223 0.0039821975 -0.002895833 0.008809703 -0.0015832528 0.0047201505 -0.0026235317 -0.0036649734 0.0036631445 -0.01002644 -0.0015137071 -0.014094407 0.005637763 -0.0023673994 0.0011197027 0.007843671 0.0024426163 0.006336361 0.0006819921 0.012380918 0.0006493089 -0.0033974173 -0.0052637006 -0.0035523644 -0.005799276 0.0029863412 0.002323157 -0.0050970498 -0.0101863425
has -0.004230071 0.0072409054 -0.010621528 0.0029653513 0.008012194 -0.0027408544 -0.002412973 0.017202068 -0.008549005 0.003493689 -0.0065726778 -0.011484227 0.0046551577 0.0041435235 0.006999294 -0.0073152995 0.006866015 -0.01303026 0.0038695978 -0.014187936 -0.000650815 0.0025215982 0.0003143442 -0.0021451276 -0.0013428162 -0.008244073 -0.011088404 -0.009935222 -0.012481481 -0.0028698903 0.015591109 -0.0022256717 -0.0031725643 -0.015387266 0.00075679447 0.0059175715 0.0014497696 -0.0063766367 0.005460728 -0.017497359 -0.0053561977 0.0027612834 -0.009673743 0.0015417666 0.006094314 0.0081944885 -0.0009399792 0.0006847578 0.005094212 0.002846393 0.002976652 -0.007754911 0.0055501736 0.005455973 0.008056861 0.0036174434 -0.0001244969 0.005072209 -0.014228399 0.0019009544 -0.0037494232 0.0016553778 -0.003788358 0.0037503578 0.0047760042 0.0068235165 -0.0044969786 -0.0012756146 -0.0043752 0.0027809574 0.0055555073 0.0034847495 0.0123915365 0.002232543 0.0015287936 -0.0036982528 0.0014471685 -0.0024140372 0.002705555 -0.003977957 -0.009542736 0.0025373604 -0.012177117 -0.0026693428 -0.011255525 -0.003798174 0.010354277 0.0067938897 0.01293139 0.009083562 0.015077126 0.005303623 -0.003780061 0.008967576 0.007981922 0.008412822 -0.00022640423 0.0033919301 0.006306775 -0.0076607205
by -8.4566476e-05 0.003034614 -0.00020204329 -0.012088361 0.0072431774 -0.008054622 0.006711243 0.01489548 -0.011541574 0.0004624597 -0.011290823 -0.0191032 0.003567991 -0.0021687327 -0.0012390587 -0.006044333 0.0005526281 -0.010922021 0.001586257 -0.015682986 0.010312859 0.0016903055 0.008905846 -0.01151294 0.006768012 -0.0040600784 -0.0025556057 -0.010631285 -0.0075876787 -0.00448868 0.0052878247 0.009343253 0.008611856 -0.010546864 -0.009655721 0.016443534 -0.004212324 -0.0047586 -0.007288384 -0.018813599 0.0048475554 -0.009519728 -0.0013414113 0.0029600486 0.0010613027 -0.0035287263 -0.00935213 -0.010987327 -0.0069724894 0.0020940653 0.005442372 -0.0058991928 -0.0028025953 0.0026380366 0.0005747675 -0.0037996145 0.008371461 0.0060018217 -0.01534937 0.0028265207 0.009697842 -0.0069956174 0.0064797304 -0.0035539388 0.0004037415 0.018145211 0.008013946 0.004190796 -0.0115445275 0.006874684 -0.010816612 0.013813568 0.0051500914 0.002866325 0.01686783 -0.0068943985 0.0073988196 -0.004662464 -0.0103634605 0.004434874 -0.008682613 -0.0014919735 -0.01602722 0.0032644612 -0.010796064 -0.0064582475 0.022236707 0.0131970765 0.0073086396 0.0027120686 0.006208349 0.014322366 -0.0018287954 0.006134265 0.020186247 0.010428339 0.00033489938 0.0024006641 0.008255527 -0.0046928
human 0.0023077657 0.00852828 0.0045888317 -0.0018955803 0.00391242 -0.0139047485 -0.0049416837 0.006719888 -0.0080265235 -0.0040158182 -0.00572615 -0.0079411175 0.0071082525 0.014048284 0.009412506 -0.0001418893 -0.0011377614 -0.00037503237 -0.0045607425 -0.019641332 0.010845109 -0.00672775 0.00504532 -0.0053299703 -0.00507597 -0.0002636023 -0.009404296 0.0062422995 -0.010264122 -0.007738937 0.011218548 0.0041464265 0.008300221 -0.005473155 -0.0060285297 0.0017391107 0.004217788 0.006736585 -0.0060273735 -0.010260523 0.0033781547 0.0028493456 -0.0088546295 -0.0050106575 0.0020420253 0.00013277412 0.0012015746 0.0047026896 -0.006825639 0.0079551395 -0.0017900402 -0.006767551 -0.007570995 -0.0062420056 0.0088134045 0.0068075503 -0.007115653 0.0017882129 -0.011843102 -0.0068009673 0.0061863963 -0.0006390086 0.005449409 0.009378802 0.0026257618 0.0020723096 0.006294062 0.008018866 -0.0037668652 0.015035119 -0.0076589477 0.0014649738 0.004802643 0.008594138 0.0054527246 0.009299359 -0.004185332 -0.007208945 -0.010082612 -0.0044973195 0.0063971854 -0.0039079576 -0.010825779 0.012564 -0.012480993 0.00048601636 0.013811575 -0.005032497 0.0048810258 -0.00035197922 0.013213568 -0.00048083917 -0.004712206 0.009957157 0.0023491145 0.01061256 -0.007494738 0.005144358 -0.002587683 -0.00821304
earth 0.0011737986 0.00014615283 -0.003651353 -0.0034592901 -0.004541024 -0.012856577 0.002765559 0.022863809 0.0026703135 -0.006711958 -0.0069453903 -0.004440067 -0.009510357 0.0067697996 0.0056513627 -0.0051838015 -0.0025592467 -0.011424936 -0.010382321 -0.0066062077 0.009181226 0.0021620565 0.01149822 -0.01003938 0.0011481661 0.00047457416 -0.011433464 -0.012286717 0.0032323187 -0.0022355174 -0.00095939985 0.0076747974 -0.0015211955 -0.012991999 -0.0011070834 0.0052259983 -0.004692333 -0.006088971 -0.009957782 -0.008839889 -0.0023874976 -0.005103941 -0.00028768936 -0.0029371583 0.014792982 0.0056723896 -0.006167481 -0.0017528814 0.0033083844 0.007509656 0.009874752 -0.007069569 0.0001843977 -0.003914453 -0.0005162524 -0.0020399182 -0.0010573122 -0.010387246 -0.0056059794 0.0042561777 0.0066474234 -0.0061912 0.011484848 -0.006627044 0.005193201 0.009878837 0.007084472 0.01188844 -0.007795817 0.011495032 0.0006172707 -0.0045356364 0.0017404412 4.0208757e-05 -0.0012498966 0.005336564 0.005835589 0.00048325493 0.0030587215 -0.0017756515 -0.0047707413 0.007427145 -0.01673477 -0.0011141407 0.0007424577 -0.008738748 0.01911986 0.008330218 -0.0018109498 0.010742373 0.015792197 -0.0014007132 -0.006109786 -0.008638323 0.013061657 0.010158123 -0.00095076626 -0.0011767537 -0.0072309636 -0.0055767396
when 0.0061922953 -0.007657802 -0.010357164 -0.00035898155 -0.007457342 -0.013008548 0.008299624 0.017664045 -0.009394742 0.0042824503 0.007893648 -0.0013921695 -0.004668173 0.013015978 -0.0065498324 -0.0058421968 0.0030623623 -0.009836617 -0.011091577 -0.0060898094 0.011830778 -0.003446107 -0.003277878 0.0030631484 0.00090901006 -0.0077154394 0.004360646 -0.0048646573 0.00083312055 0.004389328 0.013250837 0.008504418 0.010498141 -0.0146400845 -0.0006185164 0.0045698765 0.0026900803 0.007644156 0.004278326 -0.015133308 0.011228564 -0.0040196315 -0.0018219124 0.00470608 -0.002181569 -0.0014527297 -0.0017702497 0.006221962 0.0060030124 -0.0016217788 -0.007937989 -0.0070237876 0.009837504 -0.010066329 0.009394471 0.0028399222 -0.00069858466 0.00866962 0.005889728 0.0101335505 0.010855839 -0.012219458 0.010921298 -0.008794204 -0.010758184 -0.0029608773 0.005103498 0.011835397 -0.011416372 0.0030107533 -0.003000013 -0.0015543016 0.0017179792 0.0065736035 0.008687844 -0.0020413727 -0.0031691308 -0.0009133994 -0.0058364556 0.003563686 0.0069030346 0.008808069 -0.012604573 -0.0026948585 -0.013383335 -0.0072107688 0.010392446 -0.0040355828 0.005735054 0.010266633 0.009469601 0.004424491 0.010664978 0.006727177 0.0043756277 -0.003959142 -0.00017372276 0.005887415 0.008033871 -0.004335506
same 0.011047244 0.003468399 0.0042932676 -0.0065603596 0.005168427 -0.0040123146 -0.00708282 0.011932557 -0.010555403 -0.009179063 0.0017357116 0.004846009 -0.0022052657 0.009545623 0.0059366515 0.0026095477 -0.005401784 0.0035005282 -0.009207088 -0.010626066 0.008000877 -0.0070353975 0.006462735 -0.0041026203 0.00025205957 -0.006864763 -0.007841771 -0.004642502 0.0066606533 0.006142368 -0.006609829 -0.0067027994 0.0056590396 -0.013085571 0.005354711 0.010129283 -0.00794309 0.0077029136 0.0074932803 -0.0062399544 0.002631829 -0.0079018995 0.0046982784 0.0074553 0.006895947 -0.0095412135 0.0025916484 -0.003614261 -0.0010029158 0.0063947085 0.002202741 0.0023057256 -0.005661208 0.0049269837 -0.0038171418 0.0016500102 0.006539206 0.0033523906 0.00474156 -0.0025321252 0.004892449 0.0057780677 -0.00083672546 0.006171287 -0.0116648 0.013015209 0.0058653695 0.008601696 0.0010698333 0.008626355 -0.0036689264 -0.004081077 -0.00015766751 0.002576641 0.00064379285 -0.0075657754 -0.0059482493 0.009261351 0.0075462176 0.005698953 -0.0059413016 0.0013417682 -0.012185859 0.009227856 -0.0025411483 0.006427779 -0.0005779892 -0.0013807608 0.0058180904 0.004592441 -0.002196331 -0.0050322544 0.0030920159 -0.008813501 0.009881301 0.0071428698 -0.0032075262 -0.0067717787 -0.007828798 -0.0021173388
ourselves 0.0092980275 0.0030235748 -0.009843751 0.006413142 -0.0065390905 -0.005181149 0.013193477 0.01866527 -0.012459004 -0.000591419 -0.010755406 -0.0165652 0.009157968 -0.0020999631 -0.0054879724 -0.008892705 0.0057033696 -0.0018033657 -0.00805052 -0.019283675 0.014783432 0.0127271535 0.011991206 -0.0008387294 0.00475612 0.0027518945 -0.0025668892 0.0009466497 -0.0026443938 0.0021265938 0.0046410398 -0.006718279 0.01343787 -0.017447859 -0.0005998164 0.009323333 -0.00017287426 -0.0075712632 0.0022191708 -0.017281808 -0.00474387 -0.008695718 0.0012172448 0.0053437967 0.005545458 0.005618045 -0.013866087 -0.0063968915 -0.005055064 -0.0053597144 0.008188206 -0.015707767 -0.007040607 -0.010406543 0.008225276 0.0027028897 0.0022603471 -0.008215096 -0.009717823 0.003412378 0.0012744981 -0.011341458 5.9076436e-05 0.0034029938 -0.014600885 0.0116812475 0.0035091776 0.017005464 -0.00982766 0.0164622 -0.007982594 -0.0017951989 0.011209909 0.003955933 0.0041470127 -0.00031182033 0.00984596 -0.0064728805 -0.008405049 0.00047761173 -0.005003999 0.011289985 -0.01111127 -0.00038931065 -0.015551793 -0.012347001 0.0043022605 -0.0021873985 0.001396875 0.0010095866 0.010760741 0.0009656832 0.004818085 0.0040885257 0.019492347 -0.00029869477 0.0068972306 0.0044627595 -0.0025856935 -0.0076999515
like -0.0012577239 -0.0045242193 0.005096438 0.0077000028 0.009924218 -0.016481811 0.00967501 0.018127048 0.003109384 -0.013164044 -0.0018928327 -0.014938498 -0.009304981 0.0071702483 0.011483953 0.0037674082 -0.0054209065 -0.00043857898 -0.00580997 -0.0016353126 -0.0041812006 0.011805492 -0.005262553 -0.008223308 0.0020375168 0.0002444146 -0.0114534525 -0.0034200468 -0.0038985254 -0.004745635 0.011337917 0.0027299814 0.01264741 -0.0012044153 -0.009107071 0.01245716 0.008426528 0.0039435234 0.004564963 -0.0132797975 0.006233772 -0.0030445897 -0.002323716 -0.0069904267 0.0065316274 0.0039139236 -0.013949088 0.007585105 0.0051645376 0.00048880756 -0.0026365763 -0.0041995924 0.0071875188 0.004317998 -0.0065499814 0.011819639 0.0006051909 -0.009568687 0.0039012136 0.0072898427 0.0060357903 0.0049180035 -0.0029563399 -0.0053071715 -0.0059177834 0.0036548849 0.002335553 0.0054380526 -0.015318291 0.009087883 0.0018383866 0.0033666338 0.008850255 0.003890847 0.012884416 -0.0005240081 0.009341539 0.0005505474 -0.00054972223 -0.004074593 0.002557753 0.004534808 -0.0059544817 0.013795708 -0.013622302 0.008165141 0.009409074 0.0004878925 0.0012792621 -0.006815943 0.005968827 0.007149944 0.008468102 0.009222547 -0.0013474704 0.012283263 -0.0078526195 0.0017482144 0.008777009 -0.0026756949
into -0.0057321056 -0.00604639 -0.0006438644 -0.0030134004 -0.007939183 -0.0061357734 0.0075484887 0.019168936 0.0012767134 -0.0025135032 -0.012278726 -0.0034718509 0.0036099153 -0.002851907 -0.0003402184 -0.002679274 0.0011470513 -0.0042849286 -0.007360142 -0.013464258 0.009829877 0.0017886416 0.0024077883 0.0009904498 -0.0035113075 -0.0068076462 0.0059443093 -0.012677464 -0.006477881 0.00066729053 -0.0008160133 0.001373124 0.012873018 -0.011221244 0.005333895 0.008757227 -0.002668353 -0.0038802244 -0.0013095167 -0.0034374234 0.009115448 0.0013003584 -0.008956127 -0.0075004622 0.012081305 0.0008416064 0.00029621428 -0.00075893616 0.010443121 -0.008404604 0.01059042 -0.012866535 -0.00012912272 0.005500284 -0.009807324 0.008578182 -0.0061862725 -0.008522152 -0.003453715 0.0045016715 -3.3373086e-05 0.00467207 -0.0018539712 0.001019986 0.0042412053 0.01095994 -0.0020184189 0.010652727 -0.012961227 0.009401594 0.001962439 0.011985854 0.0119722085 -0.0021446175 0.017202064 -0.0034891823 0.008452206 -0.005624547 -0.011957951 -0.0017377248 -0.012331977 -0.0018986817 -0.008263315 0.005702179 -0.016330652 -0.008596262 0.0026192272 0.0026804681 0.01120012 0.0020816776 0.019287799 0.0010438381 0.010607506 0.0062986463 0.01711218 0.003527791 0.0007902357 -0.00044591617 -0.00898356 0.008554833
good -0.0014346102 0.008394001 0.0013230218 0.0019437188 -0.0005711604 -0.0136250425 0.003570029 0.00881053 -0.011084608 -0.006235127 -0.0032610407 -0.008880395 0.0037655844 0.004234682 0.005030018 -0.0077406177 -0.0052727107 0.0033286642 0.005930513 6.5675384e-05 0.0070444336 -0.006221546 0.008913395 -0.007440188 -0.007508551 0.008988231 -0.0038981014 -0.010422371 -0.0047145425 0.0067126877 -0.0001293485 0.0047432166 0.0020547835 0.00011760956 2.1992786e-05 -0.005947685 -0.0024042134 0.008019816 0.0012052105 -0.009765941 0.007760702 0.0055268025 0.0059986725 -0.00022405133 -0.006646987 -0.004036415 0.0030939379 -0.006942887 0.01073325 -0.009480172 -0.00775985 -0.0072611263 0.006588473 -0.008099786 0.008412125 -0.008085049 0.0038576014 0.0026868263 -0.0022396077 0.010611229 0.0062371357 -0.0011035857 0.0068788 0.0067413077 0.001129985 0.0131589295 0.00059009576 -0.0055068475 -0.007695698 0.0021037864 -0.0076690125 0.00029296806 0.009855473 -0.0038495576 0.008051785 0.0051324423 -0.0003671225 0.002033576 0.0040466995 -0.0068839598 0.002183612 0.009464948 -0.0066804974 -0.0052350326 -0.011721065 -0.0097840205 0.008074458 0.00632923 0.009483078 -0.0005091533 0.0047380663 0.005136064 -0.008969932 -0.009255669 0.0081440145 -0.006986934 -0.002635514 -0.0051782783 0.006312819 -0.003698551
all 0.011136727 0.0016580808 -0.005979852 -0.004671008 0.0021932642 -0.010128373 0.010294022 0.01662301 0.0025544614 -0.010395153 -0.0070364373 -0.004812562 -0.0012928605 -0.0027310203 0.008874311 0.00463898 -0.0032118584 0.0005697012 0.003996707 -0.0044727316 0.011381469 -5.307809e-05 -0.0056889956 -0.001596741 -0.008044006 0.010346267 -0.010460753 -0.0028692966 -0.0050371774 0.0040913215 0.008460869 -0.008402017 -0.0019420375 -0.0045520356 0.0025199177 0.009572231 0.00032073492 -0.0016355236 -0.008233718 -0.0004997264 -0.006627176 0.0007254228 -0.004994379 -0.00804338 0.00999046 -0.0012453817 -0.012221752 -0.009962378 0.0019630652 -0.007853672 0.0042414265 0.0009712023 0.0040667555 -0.0060884273 0.007585237 -0.0066478504 0.008008345 -0.0013415506 -0.004479231 0.005408138 -0.0010694043 -0.0060782386 0.00038306636 -0.0058253524 -0.0028770436 -0.0007493859 0.007079049 -0.005938217 -0.008472426 -0.0045293896 -0.0100430595 0.0016160432 -0.0055621727 -0.004103167 0.0067767324 -0.0005896847 0.0035475441 0.009471507 -0.011692023 0.0058496273 -0.010031705 0.007373409 0.0034929262 0.011595462 -0.011424126 0.0022996108 -0.0026661782 0.00035182334 -0.0020155823 -0.0072263107 0.01002631 0.00712755 -0.002850223 -0.007634924 0.007996409 -0.002067936 -0.008246827 -0.0055564935 -0.0016039991 0.008488258
planet -0.0047362936 0.009554379 0.0046920283 -0.006831652 -0.00015171974 -0.01044309 0.008041521 0.01232711 -0.005456699 -0.014082115 0.004551094 -0.01774773 -0.009007435 0.005929197 0.004486417 -0.0027313987 0.0019214676 -4.442496e-05 -9.3432776e-05 -0.0040121293 0.0011301377 -0.0051290942 -0.0065372307 0.006821343 0.002471145 -0.004963533 0.0035650837 0.005774153 0.0045252047 -0.0055750473 0.00065837614 -0.0022036727 -0.0026399265 -0.0035863551 0.00325501 0.0014598711 0.009771765 -0.00966123 0.005703445 -0.01315295 0.0037431992 -0.007588771 0.0008409443 0.007187822 0.0038905113 -0.006157213 -0.01303492 0.002442014 0.006279323 0.0073430613 -0.0034982988 -0.014046414 0.007982992 -0.005314872 0.0038229378 0.011814572 -0.0032481123 0.00031281877 -0.008821792 -0.0042101694 -0.0030655733 -0.003080584 -0.002957294 -0.0015581356 -0.006288406 0.01452007 0.0053020027 0.0120976595 -0.0029427733 0.004091932 -0.005758709 0.013837603 0.0111559145 -0.0066924514 0.012060118 0.009980489 0.009906056 -0.006109966 -0.005426866 0.0006660181 -0.00069708645 -0.0002491211 -0.011566357 0.011254766 0.0014853876 -0.002156912 0.0031221919 -0.0017811941 0.00024095518 0.0062388466 0.008662987 0.001830773 -0.0069686403 -0.001378288 0.014122221 0.00937439 0.0053474912 -0.0050363 0.0100366715 0.00012518767
let 0.0022636822 0.007271137 -0.0074644554 0.0056252214 0.010653519 -0.00086354837 0.0060874913 0.011529563 -0.003437876 -0.010872816 0.00043589162 -0.0037419957 -0.0070405067 0.004587915 0.006283577 -0.0087041855 0.0033316377 0.0062155714 -0.009680048 -0.002956517 -0.005873668 -0.0067909486 0.007944633 -0.008135717 -0.0011744949 -0.007525357 -0.009531598 -0.008499536 -0.0015684088 0.002567805 -0.0047557135 -0.008221754 -0.00082333817 -0.0065615783 -0.007500605 -0.00011085709 0.005211351 0.0020469963 0.006183783 -0.0003090888 6.673128e-05 0.0004067697 0.0075160097 0.0016548893 0.0046872287 0.00032900413 -0.011765901 0.004836116 0.0063079796 0.00037020427 0.009686544 -0.008165453 0.0040025124 -0.008253916 -0.009210704 0.004133168 0.005270684 0.0053088204 -0.011429507 0.0058179926 0.003782716 0.0024216701 0.0019988958 0.005753369 0.00497572 -0.0040068584 -0.007700768 0.010487807 -0.004769236 -0.0052124076 -0.004524239 0.0033672117 0.010734496 -0.00045101027 0.0027415217 -0.006447612 -0.00724149 0.0024922406 -0.0025418703 -0.008020216 -0.0012890876 -0.008076216 -0.006288627 0.0068934127 -0.0020349242 0.0068439133 0.011498774 0.00030020066 0.008074126 0.0073621008 0.013366757 0.011514548 0.006111771 0.004773109 0.011625638 0.00028530112 -0.005132421 0.007825777 0.0016362284 -0.0053370777
many 0.0011447654 -0.0028661415 0.007515252 0.0012459902 0.006031316 -0.0025746764 0.013737214 0.009694498 -0.009645625 -0.009499492 -0.0061550024 -0.018772332 -0.0010854861 -0.0031168992 0.011550119 -0.006534849 -0.004635831 -0.011327366 -0.0057090875 -0.022816999 0.0061172848 0.007831246 -0.0011003709 0.0062404987 -0.0014307541 -0.0062314365 -0.0063626003 -0.0061348123 -0.011149896 -0.00801543 0.0025512076 -0.0019152997 0.009664542 -0.017079148 -0.007743025 0.009955988 0.0013293545 0.001780992 -0.002542453 -0.0050859847 0.010209746 -0.012874178 0.0008682246 0.005433869 0.005179082 0.005286088 -0.010663824 -0.0057736416 -0.0053907055 0.01010311 -0.008576159 -0.008093163 0.0012982807 -0.005612713 0.008644303 -0.002448858 -0.007151833 0.007743387 -0.014199547 0.012402217 -0.00116206 0.0025307098 0.0047385474 -0.0033580323 -0.011907733 0.0025969485 0.011402648 0.013423948 -0.007546489 0.01493349 0.0030807864 0.008437888 0.007458923 -0.007093424 0.016924102 -0.0062885107 -0.0022059206 0.0036908323 0.0014453932 -0.009797612 -0.0024909219 0.007900273 -0.016481899 0.014983562 -0.011426347 0.007555283 0.0035016974 0.009806965 0.015524235 -0.00714915 0.009759065 -0.002688886 0.010404932 0.009761448 0.0026114853 0.0045333556 -0.0011546419 -0.010255456 0.0017895353 -0.010450683
few 0.0038785657 -0.0064371875 0.00474176 0.006243327 -0.001489755 -0.009367198 -0.0065294136 0.013203826 0.0012385829 0.005580424 0.0020931084 -0.008008209 0.0031304536 0.011610723 0.010265747 0.0060380814 -0.0077380226 -0.009347949 0.0060963957 -0.014939925 0.0062422347 0.009373594 -0.0022140623 0.006183365 -0.007917653 0.0070875976 0.0038204372 0.0017536671 -0.01031883 0.010182581 0.012070593 -0.0018830457 0.0069593554 0.0009851328 -0.003369516 0.010199054 -0.0022170977 -0.0023130872 -0.0013144118 -0.009510923 0.00043246796 -0.010424871 0.0019029471 0.008808817 0.008024147 0.0054220357 -0.007528988 0.004208633 -0.0052349526 -0.004634599 0.010417623 0.0037218235 -0.004068416 -0.0066682557 0.0070250635 0.005154369 0.007170481 -0.007445992 -0.0040079714 0.0006229656 0.0013770086 0.00026369444 -0.003868974 0.00478627 -0.0051484765 0.013467981 0.0016260284 0.013090104 -0.005264791 0.010105149 -0.008285505 -0.006660541 0.002278098 -0.00069865584 0.014326009 0.005612258 -0.0053296853 0.008651997 -0.0016182101 -0.010091424 0.003356081 -0.0010490102 -0.013789058 0.011838962 0.0038399766 0.0074640643 0.006005316 0.009386863 0.008700131 -0.0056756623 0.014581072 -0.0007474785 -0.00838161 0.008517923 -0.00015109185 0.010375477 -0.0072001675 0.007908177 -0.005366319 0.0035792748
biology 0.01200184 0.007115401 -0.0037932028 -0.007093303 -0.007993552 -0.005223282 0.013131237 0.010689319 0.00269104 0.00081642065 -0.011508879 -0.0075121964 -0.0072794845 0.0010971226 0.0027253556 -0.010367715 -0.002336104 -0.010747538 -0.0092517575 -0.020559167 0.015153826 0.0109209195 0.0016338283 -0.0038089717 0.006757824 0.0022451703 -0.012628347 -0.01043101 -0.0031863928 0.00975467 0.00992276 0.009371242 0.011287599 -0.009771313 0.0058947084 0.017881097 0.011454998 0.0072016334 -0.010199155 -0.006146901 -0.0055681374 -0.0124255875 -0.011400021 0.0025576232 0.0061012697 -0.0077680955 0.00015411759 0.006523277 0.0069062337 0.0084785875 -0.0033105547 -0.011808635 0.0053829155 -0.0036707553 -0.008094783 0.008139292 -0.0021048908 -0.0069774427 -0.0033437756 0.009599282 0.009431052 -0.0031576958 0.01426815 0.0034671645 0.002047398 0.008398756 0.0068635494 0.013379925 -0.017990902 0.014429184 0.0005258797 0.011053423 0.003429381 -2.9447438e-05 0.0024697818 -0.0008126208 -0.0018789745 -0.0026613567 -0.0031372018 0.0076299473 0.0009950162 -0.005995475 -0.015389217 0.002845427 -0.0025837692 -0.01147616 0.01631415 0.006391771 0.003652986 0.011616191 0.017760772 0.005945291 0.00709038 -0.009390471 0.0002829266 0.0008092531 0.010695207 0.0006912169 0.0065680835 -0.0073367367
one 0.0052720145 0.0014873749 -0.001653478 -0.004354579 0.0056538368 -0.013281636 0.007421676 0.012318683 -0.0038532822 -0.0069416347 -0.008705487 -0.010402759 -0.0052596605 0.005399011 -0.003935299 -0.00254103 -0.008208299 -0.005019961 -0.0016477479 -0.014037517 0.0055721654 0.011013029 0.0051466273 0.0014515598 -0.0047171325 -0.00054617197 0.0006695562 0.0005116429 0.007011488 0.00015241186 0.010139027 0.0055922964 0.0051417863 0.003126759 -0.006320621 -2.5621346e-05 0.008365893 0.007765915 0.0028932826 -0.008370455 0.008609818 0.00047854072 -0.001433461 0.008520081 0.006970672 0.003194203 -0.0022932119 -0.009622338 -0.0019217043 0.0026128695 -0.0052872747 0.0048857387 0.008070358 -0.009431116 -0.00571587 -0.004088144 -0.00032854348 -0.002495126 -0.004612129 -0.0011282915 0.0048223487 0.008209821 -0.0021306828 -0.00790008 0.0017851596 -0.002321413 0.008996824 0.005719348 -0.011603403 -0.0038494489 -0.00946155 0.0043729288 0.004788163 0.0038995333 0.003610273 0.0020952306 0.00328544 -0.00032960065 -0.009974237 -0.0007935284 0.0018804783 -0.0019278267 -0.005668425 0.00046730958 0.0044901213 -0.0040207393 0.013951001 -0.0024071722 -0.0072465315 -0.005687166 -0.00010119792 0.0036133279 0.0061533344 0.0020826666 0.012978481 0.0023632352 0.0062429435 -0.0010330521 -0.0016221397 0.0059927157
if 0.0034741603 0.009959408 -0.009375518 -0.010208137 0.0005614982 -0.007888966 0.0011510773 0.009194318 -0.006999702 -0.011935077 0.0066298405 -0.009462684 -0.0031829472 0.0018628947 -0.00013091191 -0.011196778 -0.0006466924 -0.003412421 0.007263777 -0.016788488 -0.0013926051 -0.00024303328 0.004000142 -0.0067198393 -0.0052581993 -0.0071278843 0.0032720857 -0.010605318 -0.0059131384 0.0017030325 0.0058186315 -0.010289243 0.011781352 -0.008493549 -0.0015179542 -0.0032674044 -0.0061892197 0.0025318307 0.003701563 -0.0033221047 0.0070572863 -0.010192187 -0.00312491 -0.0029914896 0.002401829 0.0033733966 -0.0019831625 -0.008179113 0.00493882 0.006616566 -0.0056093587 -0.00016982731 -0.0034298268 0.008323717 0.0036314789 0.0049625323 -0.00029298232 -0.010164722 0.0048444974 -4.0424286e-05 0.009188842 0.0016477304 -0.004811614 -2.7429636e-05 -0.0002768886 0.003294327 0.012893951 -0.00031978928 -0.012404513 0.009449938 -0.0038501061 -0.0038541893 0.0051899017 0.0071226195 -0.0004202443 -0.0030237348 -0.0068216897 0.0031557716 -0.0075798794 0.008156502 -0.0019798225 0.0028395625 -0.008255447 0.011155776 -0.0046143457 -0.00953057 -0.0006028482 0.0024043722 0.011702932 0.004599597 0.0009671697 -0.003339326 -0.008249549 0.0040435744 -0.0039218944 0.005576884 0.0026185608 -0.0024782715 -0.009296683 0.0057756067
companies 0.000808918 -0.008912843 -0.008342703 0.007596593 0.0027267816 -0.01189138 0.0012962958 0.011494861 -0.010651947 -0.009245816 -0.0021139414 -0.013538104 0.00025558035 0.003971514 0.009482588 -0.0002567261 0.0019921588 0.003627241 -0.005078921 0.0017816717 0.002333397 0.0003317743 -0.009118713 1.5550237e-05 0.0070853676 0.0021889138 -0.009523698 -0.0045791627 -0.0077979728 0.0069062514 -0.003683649 0.005054878 -0.0032963485 -0.01086472 -0.008634207 0.007418747 -0.0076869433 -0.0063252286 -0.0072673727 -0.008201009 -0.003219388 -0.00064392167 0.0052552246 -0.0013952047 -0.003044511 0.00088407693 0.003596536 -0.0056959465 -0.0043714717 0.0054337163 0.006592972 -0.009725086 0.00881061 -0.010158785 -0.0076980684 -0.004076048 0.0021948526 -0.0005640102 0.0011128493 0.008151764 0.005998242 -0.0044914456 -0.0042429385 -0.007928083 -0.0024112011 0.013395794 -0.0055630063 0.006609997 0.001267502 -0.000790049 -0.007236938 -0.0037366303 -0.0032510285 -0.00583046 0.009154396 -0.0069180676 -0.002627789 0.005434947 -0.0014301013 -0.00786663 -0.006301846 0.004133925 -0.00052777503 0.00037399778 -0.0032895168 0.0017873899 0.0055556754 -0.0013253229 0.007878376 -0.0067864866 0.010254417 -0.007951009 -0.0011971821 0.0067907707 6.774411e-05 0.008038101 0.00600638 -0.008500677 0.00014311657 -0.0048379707
species -0.006079698 0.0014731993 0.0049226 0.0066918796 -0.003405315 -0.011314553 -0.00073279534 0.015183358 -0.0002834358 -0.015124846 0.00036752754 -0.017806198 -0.00015341394 0.009729711 -0.0035362924 -0.0026597898 -0.00037931305 -0.0117382035 -0.0045308284 -0.008204154 -0.0035213956 -0.0037006391 0.00088529853 0.006618958 0.0018149781 0.010787746 -0.010748358 0.006055769 -0.008420957 -0.0049082865 -0.0013973702 0.0015671053 0.0016082135 -0.0016670575 -0.0031871547 0.01048645 0.009119749 -0.010678727 -0.0028539367 -0.014073569 -0.0065771844 -0.0011185815 -0.0003399008 -0.0028678642 0.0036265529 -0.008111286 -0.00835276 0.0002927105 0.010100947 0.007674416 -0.0029843017 -0.0012718438 -0.0012000802 -0.005359314 -0.0042834743 -0.0019475092 0.0043238048 -0.009320898 -0.013124534 -0.0019051392 0.01017766 -0.0011531601 0.010460132 0.008917484 -0.010358234 0.0038398444 0.012178906 0.011822461 -0.002840176 0.01702242 0.008119425 0.0018883456 0.005565953 0.0079669235 0.016224327 0.011639732 -0.0072724223 -0.003003786 0.0010804401 0.0004301196 -0.0037683987 0.009002667 -0.00084824214 -0.0019620322 -0.008805343 -0.01040522 0.016634937 0.0058092372 0.0035037876 0.0040935725 0.016614558 0.012970468 0.008481801 0.003394753 0.009926416 0.011729373 0.0024412833 -0.0017001287 -0.008562522 0.0022299183
more -0.007199381 0.0075673475 -0.0066982773 -0.0028631764 0.00185187 -0.0065394035 -0.0064560734 0.011501598 -0.008152351 -0.011721281 0.0027589162 -0.0053781383 0.0061702197 -0.00425799 0.0016312451 -0.0023350366 0.00671131 -0.011274456 0.00493163 -0.015798574 -0.005030003 0.0018461546 -0.0019258482 -0.0044676196 -0.0050148633 0.00464398 -0.010984093 -0.0002689175 0.0022426508 0.0008456991 0.0031149602 0.006929244 -0.007127055 -0.014150137 0.002981593 0.013013403 -0.006303406 -0.0093220165 -0.0008801093 -0.014144217 0.0028902828 0.00675161 -0.007523582 -0.0070044743 0.012007206 -0.0014409499 -0.006293153 -0.0033575108 -0.0075127874 -0.0043245354 -0.0038099783 -0.002202552 0.0012437815 0.0071885516 0.0065371417 0.0005317335 -0.009500429 0.0018324131 -0.009037873 0.010572627 0.0054097134 -0.0027186521 0.0091741085 -0.0031412544 -0.00603196 0.0042202165 0.010947447 0.009465516 -0.0023966143 0.008200936 -0.003562619 0.011446749 -0.0048575774 -0.0018182928 -0.0012189418 0.009697261 -0.0029560763 -0.0010213372 0.0050675333 -0.010017895 -0.0048628794 0.0036740925 -0.010279454 0.01168347 -0.0019803145 -0.0064467485 0.0100952955 0.009504107 0.003980975 0.007971504 -0.0020934036 -0.001120187 0.011189816 0.005754878 0.006176118 -0.0016811818 0.004901929 0.0012124089 0.0087817265 -0.00031071893
were 0.010040173 -0.0039688963 -0.008504268 -0.0026894764 0.0042229546 -0.008241116 0.009635254 0.001520027 -0.011038333 0.0036447423 0.0048975223 -0.010361947 -0.0043869005 -7.6382494e-05 0.0012775981 0.0070039066 0.0021266567 -0.004338184 -0.004780591 -0.011019031 -0.0057344744 0.008670986 -0.008055187 -0.003945525 -0.0068580345 0.009961283 0.0035773853 -0.0024257659 0.0012506418 -0.0011830948 0.014340121 -0.0040204367 0.00788516 -0.0102888625 0.007658883 0.015381048 0.008388061 -0.0016045298 -0.001972989 -0.015393392 0.010740884 -0.011650314 -0.008583867 0.005169553 0.0015605044 0.006911174 -0.0113281505 0.008414814 0.0038876035 -0.008211609 0.004411232 -0.008318258 0.007365793 0.0060459673 -0.0091394745 0.009492562 0.0059533883 0.0055260174 -0.010993698 -0.0047279634 -0.0069146035 0.0030747273 -0.0005948058 0.005129168 0.0018428518 0.0140805235 0.0054110396 0.0036326642 -0.0038487772 0.008691324 -0.0092326235 -0.002844677 0.0022537406 0.006728106 0.0050005475 -0.008337519 -0.0001644136 0.008753141 0.0035817819 0.0030261478 -0.0073129344 -0.0026391116 -0.007178044 -0.002303178 -0.012797797 -0.0017950165 0.008592734 0.006912375 0.007678483 0.01012058 -0.000346132 0.012567499 -0.0017482653 0.0009836555 0.0014830943 -0.0015850927 -0.0006914067 -0.009031631 0.009659735 0.0042477055
make -0.00037900565 0.0039575333 0.006318974 -0.007423494 0.005185036 -0.0068945084 0.007395428 0.010089784 -0.0123545015 0.0013365718 -0.003245161 -0.016094882 0.00044141998 -0.0019541765 0.009080193 -0.008989021 -5.8184472e-05 -0.0031207958 -0.006035014 -0.014287761 0.01174029 0.003947722 -0.0081796255 -0.0014699029 -0.009232527 -0.002417143 0.0022944545 0.0009195899 -0.009082368 0.0028014213 0.0115470495 -0.007806188 0.0005375947 -0.010378027 -0.011360601 0.009498211 0.009141845 0.00082857197 0.0017397599 -0.008824011 0.0009833369 -0.010538039 -0.0026687754 0.0061378176 0.00774291 -0.0005811308 0.0034809122 0.0018256869 -0.0055145514 0.007812306 0.01024791 -0.013291271 0.008368201 -0.00803882 -0.0010147466 0.008241658 -0.0047941045 -0.009397977 -0.012173485 -0.007839755 -0.0041427156 0.006859149 0.0073231985 -0.008700715 0.0048872973 0.014694643 0.011590317 0.015338495 -0.015192157 0.004797001 0.0014855667 0.0062547764 0.008686579 -0.005450655 0.011445424 0.0117067695 -0.008425804 0.01008454 -0.00022169563 -0.0044502397 -0.0048898812 -0.007228386 -0.0139587 0.010221581 -0.008347308 0.008386078 0.0001407708 -0.0043896604 0.011175171 0.009755156 0.011413111 0.011536261 0.008360978 -0.005731184 0.015861228 -0.003440729 -0.0019718872 -0.007977295 0.006891022 -0.0048433687
know 0.004436029 -0.000115159826 -0.0022954983 -0.007489718 -0.004660414 -0.009622949 0.0037655265 0.0109506855 -0.005424319 -0.0020025778 -0.007359775 0.0040400755 -0.0013899886 -0.0037870286 -0.00077364326 0.006003257 -5.8627353e-05 -0.0073237186 -0.0095416205 -0.01453459 0.0001379888 0.009367518 -0.0060421396 0.0007283848 0.00019220069 0.004704717 -0.010191526 0.0062707947 -0.0053833304 0.006685008 -0.005040396 0.0048592123 -0.0051253787 -0.009515147 -0.0028835037 0.0018748827 0.0013157544 -0.0011270873 0.0039704773 -0.008421649 -0.002692892 -0.009392887 0.006506412 0.004242225 0.012930415 0.004496157 -0.007929569 0.0076694353 -0.0053294785 0.0034180651 -0.0026450686 -0.0028116382 0.004919826 -0.0035758712 -0.005101284 0.0010456279 0.001238642 0.0056143515 -0.009622909 0.0064841127 -0.0020222813 -0.010110579 -0.002077806 0.0024552771 0.005870046 0.013669123 0.01245496 0.011471938 -0.008183248 0.0032480755 0.0082475785 0.009430053 0.009032714 0.008870957 0.00663128 0.0036285568 -0.0077141346 0.009203831 0.006813656 -0.007216587 -0.0015681379 0.009893708 -0.0012311916 0.0106538255 0.003470194 -0.0031710248 0.015629474 0.008179775 0.0019623435 0.0015639052 0.015913036 0.009277582 -0.005090796 -0.0033855084 0.0021863638 0.00538629 0.0018919245 -0.010365002 0.0029477763 0.009216847
well 0.003453016 0.0054983487 0.0012675031 0.0072485614 0.009743409 -0.0011815383 0.000118017706 0.010666903 -0.00910313 0.005199739 -0.0051248726 0.005564176 -0.009809721 -0.00021737962 0.009737986 -0.005483275 -0.0012070712 0.0034918035 0.008318451 -0.0066959625 -0.004221866 0.011227502 -0.0087375585 0.00065866037 0.0058433954 -0.0073146736 -0.0073111565 -0.010459016 -0.0019762793 0.006004764 -0.005182604 -0.0033318566 0.010820421 -0.009142351 0.0018419124 0.007746594 -0.0020949638 -0.0059901276 0.007987422 -0.007002204 0.010014766 -0.0047841743 0.0016668484 0.0053823106 0.0034521378 0.003497262 -0.008395259 0.007794087 -0.0003977975 -0.00415672 0.005442166 0.007543719 -0.005068074 0.0004593739 0.003991478 -0.0006580192 0.0011628466 0.008062823 0.0050847623 -0.0051213866 -0.0018650016 0.007652987 0.002278662 -0.009253426 -0.0029128895 -0.0026243217 0.0032838816 0.004213902 -0.008189757 -0.00057682267 0.008491147 0.006739589 0.0047880267 0.003261363 0.011923307 -0.0040008104 0.0065031843 -1.5599113e-05 -0.009646976 -0.009959934 -0.0036416063 0.008825778 -0.0013689261 -0.006298374 -0.0019482656 -0.004529111 0.00064979395 0.009569833 0.008663667 0.0014573843 0.006934155 0.003256756 -0.008765774 0.0030718134 0.011330623 0.00566295 0.002982368 -0.004640192 0.00279137 -0.007873197
them 0.0057004984 0.003969456 -0.0013872822 -0.002031667 0.0038062532 -0.0037339146 0.005199688 0.018648395 0.0015010337 -0.0024152952 -0.004244278 -0.012148736 -0.009645347 0.00015216724 0.005491263 0.0055130483 0.001786666 -0.0068871947 0.0021029906 -0.012607617 0.0028039895 0.010494911 0.009235321 -0.0012544722 -0.0055386554 0.0043218145 0.0076776114 0.0067115733 -0.0045391475 0.008296458 0.013524172 -0.009763024 0.012050234 -0.0064334655 -0.006943675 0.009419943 0.010973137 -0.008649028 0.0064870683 -0.012849445 -0.0064632595 0.0022338794 -0.0064844335 0.0044143144 0.011230716 0.008585418 0.0024617158 -0.00967585 0.004828601 -0.008541316 0.00031631172 0.0065099965 -0.004204924 0.003587772 -0.0061138095 -0.0051306845 0.008691663 0.0024252732 0.0035459017 0.0047318395 0.0030268491 0.0015226759 -0.004973685 0.007010553 -0.0075235437 0.010505134 -0.0024962497 0.0056357495 -0.0010629297 0.003208764 -0.008105762 -0.0030487648 -0.00694101 0.011561291 0.0007018144 0.00020543786 -0.0085665835 -0.0030303195 -0.007453266 0.0026837438 0.002968231 0.004572878 0.004830936 0.0056536733 0.0058217817 0.0063344114 0.009445163 0.004172144 -0.003433488 -0.00058287627 0.011924798 -0.004895844 0.0038262252 -0.0074517834 0.015440497 0.002234266 0.001737049 -0.0064603803 0.0067798216 -0.007539024
able -0.0056257336 0.008369234 -0.004655216 -0.0026717328 0.006853455 -0.002655499 0.010589069 0.01883287 0.0030748583 -0.013855285 0.0033292123 0.0015152814 -0.004313802 0.0051389383 -0.0019109045 -0.0059049325 0.009809518 -0.002715257 0.0018572962 -0.016180834 0.010043105 -0.0014486002 -0.0036965222 0.0012578566 0.010103297 -0.0053950315 0.0009570566 -0.0034011551 -0.0104473075 -0.002974903 -0.0031066535 0.005319847 0.0010406685 -0.012923368 -0.0011813465 0.011507994 0.01196417 -0.011318187 -0.0010886333 -0.008706202 -0.0010083405 -0.004479228 0.0056376336 -0.0023538177 0.014116358 -0.00077899743 -0.005205544 0.005878856 0.008851993 0.0010760846 0.0004391399 0.0023982106 -0.0026222577 0.0038620296 -0.0006718805 -0.002826804 0.0069626058 -0.005450874 -0.0023540508 -0.0044519263 0.004892139 0.003072035 0.009460971 -0.0076575726 -0.009784329 0.014180245 0.00694642 0.0068918737 -0.012445935 0.0056638275 -0.009669312 0.0048563695 -0.0006432233 0.002911249 0.010578063 0.0039366498 -0.0065205935 0.0026083607 -0.009861569 -0.0042116325 -0.0014951852 0.00927183 -0.012999082 0.006680464 0.0029745724 0.0083148265 0.014191169 -0.005056535 0.008781337 0.010539198 0.011610922 0.0066865403 0.00042844203 0.003847699 0.011239533 0.011959397 -0.0030179971 -0.010806395 0.0074072164 -0.006743712
there 0.001148006 0.0031761262 -0.0024912439 -0.0055628386 0.002266224 -0.01646024 0.005444664 0.006687901 -0.008116811 -0.00040944887 -0.00012000202 -0.0033194441 0.00059482345 -0.0055490136 0.011456549 -0.005794482 -0.0008569298 0.004759923 -0.0013446988 -0.006907892 0.0063204286 0.0041884035 0.007828074 0.008508608 -0.00023590791 -0.002577685 0.0021852273 -0.010590133 0.005450508 0.003722838 0.011116231 0.0023734253 0.0023359857 -0.006192174 -0.0069792806 0.015485264 0.007147586 0.0022508693 -0.0052829534 -0.015898846 0.009503489 -0.000735356 -0.0065372856 -0.009048475 0.00038367693 0.0002903493 -0.01301809 -0.00077405915 0.0046974523 -0.009566736 0.00045323456 -0.009655224 -0.0025667201 -0.0022460367 -0.010423214 -0.00029650802 -0.006443132 -0.008384961 -0.0027019056 0.004317189 0.011425122 0.006540724 -0.0026249127 -0.008705926 0.0044958014 0.012088644 0.010432667 0.0023025782 -0.010982138 0.0019390887 -0.0088841235 0.009075764 4.118575e-05 0.010591587 6.862868e-05 0.011023084 -0.0040009785 0.010430472 -0.008418254 -0.007968672 0.004591518 -0.008800905 -0.01456415 0.009162483 -0.014318669 0.0038643598 0.011154284 -0.00482255 0.0077437656 0.0030332797 0.015692513 0.006635469 -0.0033229853 -0.0021152524 0.013214556 -0.003960563 0.010193001 -0.005006274 -0.003922833 -0.0047340924
don 0.004447371 -0.008627079 0.0020603247 -0.0059080445 0.010752879 -0.010275992 -0.0051509 0.011855368 0.007298644 -0.00048432592 -0.003780635 -0.0016032463 -0.0093268 -0.0013181672 -0.003363499 0.00016627765 -0.005364895 -0.009316995 -0.0076391427 -0.0022309904 0.005730051 0.010180284 0.0032030896 0.0048264884 0.00454522 0.0052513196 -0.0068321708 -0.00013809769 -0.0019239037 0.0065884385 -0.0026427025 -0.0010166178 0.006925677 -0.010239017 -0.010121104 0.010505222 0.00087912526 -0.00063137925 -0.006372622 0.003217799 0.0020086202 -0.0011474309 -0.0018648887 0.00031912315 0.00907418 -0.010164407 -0.00033150235 -0.006293085 0.010898347 0.004595438 -0.0048810234 -0.0039284034 -0.0047008973 0.008155061 0.008590995 0.0047880285 0.010278321 -0.0055568917 -0.0003864066 -0.0036258774 -0.0072723776 -0.006075781 0.0015818977 -0.0052411854 -0.0070249764 0.0057122 0.002860068 -0.0045252442 0.0023600701 0.006458199 -0.0100737875 0.0009888725 -0.005193053 0.009305812 0.0033667393 0.009111717 0.0053643067 -0.0024326008 -0.011438688 -0.0063752504 0.006614821 -0.00055243634 -0.0044715446 0.0035046425 -0.011833503 0.0030860286 -0.002482147 0.011321887 -0.0048411847 0.009236035 0.003184955 0.0008089497 -0.0010021827 0.00096126064 0.007494678 0.003413288 0.00024215419 0.0060693924 -0.0057951733 -0.008220363
plants -0.00510121 0.008755094 -0.0033956536 -0.006499809 0.0064922515 -0.016047591 0.008019972 0.022884276 0.00415715 -0.008338531 0.0004452753 -0.0036385856 0.0092600705 0.0019563716 0.0027584964 -0.0072094994 -0.0015767602 -0.001999262 0.00017365583 -0.017314976 0.008993077 -0.0029347218 -0.0031834883 -0.010157861 0.008159276 0.005001488 -0.0052739736 0.0054047476 -0.0017056032 -0.008515294 -0.0020850578 -0.004460532 -0.00300952 -0.0015207212 0.0026011264 0.009952274 0.0021369443 -0.009358225 0.0054260255 -0.013709445 -0.0007133987 -0.0104116965 -0.0049489597 -0.009863827 0.008507382 -0.008856686 0.0021542918 -0.008624712 -0.0037702932 0.0007399947 -0.007008522 0.00049812434 -0.0029099907 -0.00024493702 0.00711412 0.0071015796 0.00078315946 0.006217041 -0.005509203 0.008117995 0.0085773785 -0.011116232 0.0067876833 -0.009090809 -0.0053968593 0.016571674 0.0013893035 0.0015924543 -0.004245271 0.014739892 0.005851403 -0.0021727248 0.011224908 0.0097997375 0.0017381965 0.00064758165 -5.379293e-05 -0.0075751524 -0.0059274375 0.009452466 -0.0063648596 -0.0061852257 -0.011356789 -0.0045101307 -0.0037264577 0.004240152 0.009874239 -0.00061876286 0.015319525 -0.006915737 0.0041001993 -0.0052979128 0.011715953 -0.0017477267 0.0024952726 -0.004608724 0.009283471 -0.005068098 -0.0049608345 0.0031971955
much -0.0059154825 0.010393544 0.005537989 -0.0052677635 -0.002318801 -0.0035793625 -0.006839968 0.01222049 0.0024485267 0.002804291 -0.010183627 -0.0054463986 -0.0065882774 0.008690182 0.010858766 -0.0025114773 -0.0070189075 0.003069547 -0.0014038249 -0.0044510663 -0.00344209 0.00062274863 -0.0018178781 0.0066870134 -0.007528366 -0.003120411 -0.0029661988 -0.004473655 0.00368696 0.00055524585 0.0012707186 -0.009025905 -0.007201571 -0.0034834575 -0.0022270049 -0.004772067 0.00907631 0.0061509525 0.0062026675 -0.00836271 0.0009917986 0.005026298 -0.008295028 -0.0072969454 -0.0049388437 0.0036033767 -0.012136719 0.0011329243 0.009391264 0.0015286292 -0.009122806 0.0054414934 0.006476348 -0.008730728 0.005500129 0.01089389 0.0066377395 -0.005251555 0.0032039287 -0.0034119633 -0.0060163145 0.0018583441 -0.0023727764 -0.0014843745 -0.0076489085 -0.0024121571 0.00077518553 0.00505076 -0.0031544818 0.012303538 0.0031375817 -0.0073321452 -0.006151952 -0.00043013485 0.0017741995 -0.0052610585 0.009214163 0.005503963 -0.0096966475 0.005539682 -0.003841357 -0.006229074 -0.004061338 0.009931085 -0.008571398 -0.0048987586 0.0032582085 0.0067558587 0.008403794 -0.0061428063 -0.0036263268 0.0022172574 0.004414755 0.003059195 0.007996161 0.0018916245 -0.0005474784 0.0025163507 0.00018869143 0.005160661
